<?xml version="1.0"?>
<opencv_storage>
<opencv_ml_ann_mlp>
  <format>3</format>
  <layer_sizes>
    800 100 11</layer_sizes>
  <activation_function>SIGMOID_SYM</activation_function>
  <f_param1>1.</f_param1>
  <f_param2>1.</f_param2>
  <min_val>-9.4999999999999996e-01</min_val>
  <max_val>9.4999999999999996e-01</max_val>
  <min_val1>-9.7999999999999998e-01</min_val1>
  <max_val1>9.7999999999999998e-01</max_val1>
  <training_params>
    <train_method>BACKPROP</train_method>
    <dw_scale>1.0000000000000000e-03</dw_scale>
    <moment_scale>0.</moment_scale>
    <term_criteria>
      <iterations>100</iterations></term_criteria></training_params>
  <input_scale>
    1. 0. 1. 0. 1. 0. 1. 0. 1. 0. 1. 0. 1. 0. 1. 0. 1. 0. 1. 0. 1. 0. 1.
    0. 1. 0. 1. 0. 1. 0. 1. 0. 1. 0. 1. 0. 1. 0. 1. 0. 1. 0. 1. 0. 1. 0.
    1. 0. 1. 0. 1. 0. 1. 0. 1. 0. 1. 0. 1. 0. 1. 0. 1. 0. 1. 0. 1. 0. 1.
    0. 1. 0. 1. 0. 1. 0. 1. 0. 1. 0. 1. 0. 1. 0. 1. 0. 1. 0. 1. 0. 1. 0.
    1. 0. 1. 0. 1. 0. 1. 0. 1. 0. 1. 0. 1. 0. 1. 0. 1. 0. 1. 0. 1. 0. 1.
    0. 1. 0. 1. 0. 1. 0. 1. 0. 1. 0. 1. 0. 1. 0. 1. 0. 1. 0. 1. 0. 1. 0.
    1. 0. 1. 0. 1. 0. 1. 0. 1. 0. 1. 0. 1. 0. 1. 0. 1. 0. 1. 0. 1. 0. 1.
    0. 1. 0. 1. 0. 1. 0. 1. 0. 1. 0. 1. 0. 1. 0. 1. 0. 1. 0. 1. 0. 1. 0.
    1. 0. 1. 0. 1. 0. 1. 0. 1. 0. 1. 0. 1. 0. 1. 0. 1. 0. 1. 0. 1. 0. 1.
    0. 1. 0. 1. 0. 1. 0. 1. 0. 1. 0. 1. 0. 1. 0. 1. 0. 1. 0. 1. 0. 1. 0.
    1. 0. 1. 0. 1. 0. 1. 0. 1. 0. 1. 0. 1. 0. 1. 0. 1. 0. 1. 0. 1. 0. 1.
    0. 1. 0. 1. 0. 1. 0. 1. 0. 1. 0. 1. 0. 1. 0. 1. 0. 1. 0. 1. 0. 1. 0.
    1. 0. 1. 0. 1. 0. 1. 0. 1. 0. 1. 0. 1. 0. 1. 0. 1. 0. 1. 0. 1. 0. 1.
    0. 1. 0. 1. 0. 1. 0. 1. 0. 1. 0. 1. 0. 1. 0. 1. 0. 1. 0. 1. 0. 1. 0.
    1. 0. 1. 0. 1. 0. 1. 0. 1. 0. 1. 0. 1. 0. 1. 0. 1. 0. 1. 0. 1. 0. 1.
    0. 1. 0. 1. 0. 1. 0. 1. 0. 1. 0. 1. 0. 1. 0. 1. 0. 1. 0. 1. 0. 1. 0.
    1. 0. 1. 0. 1. 0. 1. 0. 1. 0. 1. 0. 1. 0. 1. 0. 1. 0. 1. 0. 1. 0. 1.
    0. 1. 0. 1. 0. 1. 0. 1. 0. 1. 0. 1. 0. 1. 0. 1. 0. 1. 0. 1. 0. 1. 0.
    1. 0. 1. 0. 1. 0. 1. 0. 1. 0. 1. 0. 1. 0. 1. 0. 1. 0. 1. 0. 1. 0. 1.
    0. 1. 0. 1. 0. 1. 0. 1. 0. 1. 0. 1. 0. 1. 0. 1. 0. 1. 0. 1. 0. 1. 0.
    1. 0. 1. 0. 1. 0. 1. 0. 1. 0. 1. 0. 1. 0. 1. 0. 1. 0. 1. 0. 1. 0. 1.
    0. 1. 0. 1. 0. 1. 0. 1. 0. 1. 0. 1. 0. 1. 0. 1. 0. 1. 0. 1. 0. 1. 0.
    1. 0. 1. 0. 1. 0. 1. 0. 1. 0. 1. 0. 1. 0. 1. 0. 1. 0. 1. 0. 1. 0. 1.
    0. 1. 0. 1. 0. 1. 0. 1. 0. 1. 0. 1. 0. 1. 0. 1. 0. 1. 0. 1. 0. 1. 0.
    1. 0. 1. 0. 1. 0. 1. 0. 1. 0. 1. 0. 1. 0. 1. 0. 1. 0. 1. 0. 1. 0. 1.
    0. 1. 0. 1. 0. 1. 0. 1. 0. 1. 0. 1. 0. 1. 0. 1. 0. 1. 0. 1. 0. 1. 0.
    1. 0. 1. 0. 1. 0. 1. 0. 1. 0. 1. 0. 1. 0. 1. 0. 1. 0. 1. 0. 1. 0. 1.
    0. 1. 0. 1. 0. 1. 0. 1. 0. 1. 0. 1. 0. 1. 0. 1. 0. 1. 0. 1. 0. 1. 0.
    1. 0. 1. 0. 1. 0. 1. 0. 1. 0. 1. 0. 1. 0. 1. 0. 1. 0. 1. 0. 1. 0. 1.
    0. 1. 0. 1. 0. 1. 0. 1. 0. 1. 0. 1. 0. 1. 0. 1. 0. 1. 0. 1. 0. 1. 0.
    1. 0. 1. 0. 1. 0. 1. 0. 1. 0. 1. 0. 1. 0. 1. 0. 1. 0. 1. 0. 1. 0. 1.
    0. 1. 0. 1. 0. 1. 0. 1. 0. 1. 0. 1. 0. 1. 0. 1. 0. 1. 0. 1. 0. 1. 0.
    1. 0. 1. 0. 1. 0. 1. 0. 1. 0. 1. 0. 1. 0. 1. 0. 1. 0. 1. 0. 1. 0. 1.
    0. 1. 0. 1. 0. 1. 0. 1. 0. 1. 0. 1. 0. 1. 0. 1. 0. 1. 0. 1. 0. 1. 0.
    1. 0. 1. 0. 1. 0. 1. 0. 1. 0. 1. 0. 1. 0. 1. 0. 1. 0. 1. 0. 1. 0. 1.
    0. 1. 0. 1. 0. 1. 0. 1. 0. 1. 0. 1. 0. 1. 0. 1. 0. 1. 0. 1. 0. 1. 0.
    1. 0. 1. 0. 1. 0. 1. 0. 1. 0. 1. 0. 1. 0. 1. 0. 1. 0. 1. 0. 1. 0. 1.
    0. 1. 0. 1. 0. 1. 0. 1. 0. 1. 0. 1. 0. 1. 0. 1. 0. 1. 0. 1. 0. 1. 0.
    1. 0. 1. 0. 1. 0. 1. 0. 1. 0. 1. 0. 1. 0. 1. 0. 1. 0. 1. 0. 1. 0. 1.
    0. 1. 0. 1. 0. 1. 0. 1. 0. 1. 0. 1. 0. 1. 0. 1. 0. 1. 0. 1. 0. 1. 0.
    1. 0. 1. 0. 1. 0. 1. 0. 1. 0. 1. 0. 1. 0. 1. 0. 1. 0. 1. 0. 1. 0. 1.
    0. 1. 0. 1. 0. 1. 0. 1. 0. 1. 0. 1. 0. 1. 0. 1. 0. 1. 0. 1. 0. 1. 0.
    1. 0. 1. 0. 1. 0. 1. 0. 1. 0. 1. 0. 1. 0. 1. 0. 1. 0. 1. 0. 1. 0. 1.
    0. 1. 0. 1. 0. 1. 0. 1. 0. 1. 0. 1. 0. 1. 0. 1. 0. 1. 0. 1. 0. 1. 0.
    1. 0. 1. 0. 1. 0. 1. 0. 1. 0. 1. 0. 1. 0. 1. 0. 1. 0. 1. 0. 1. 0. 1.
    0. 1. 0. 1. 0. 1. 0. 1. 0. 1. 0. 1. 0. 1. 0. 1. 0. 1. 0. 1. 0. 1. 0.
    1. 0. 1. 0. 1. 0. 1. 0. 1. 0. 1. 0. 1. 0. 1. 0. 1. 0. 1. 0. 1. 0. 1.
    0. 1. 0. 1. 0. 1. 0. 1. 0. 1. 0. 1. 0. 1. 0. 1. 0. 1. 0. 1. 0. 1. 0.
    1. 0. 1. 0. 1. 0. 1. 0. 1. 0. 1. 0. 1. 0. 1. 0. 1. 0. 1. 0. 1. 0. 1.
    0. 1. 0. 1. 0. 1. 0. 1. 0. 1. 0. 1. 0. 1. 0. 1. 0. 1. 0. 1. 0. 1. 0.
    1. 0. 1. 0. 1. 0. 1. 0. 1. 0. 1. 0. 1. 0. 1. 0. 1. 0. 1. 0. 1. 0. 1.
    0. 1. 0. 1. 0. 1. 0. 1. 0. 1. 0. 1. 0. 1. 0. 1. 0. 1. 0. 1. 0. 1. 0.
    1. 0. 1. 0. 1. 0. 1. 0. 1. 0. 1. 0. 1. 0. 1. 0. 1. 0. 1. 0. 1. 0. 1.
    0. 1. 0. 1. 0. 1. 0. 1. 0. 1. 0. 1. 0. 1. 0. 1. 0. 1. 0. 1. 0. 1. 0.
    1. 0. 1. 0. 1. 0. 1. 0. 1. 0. 1. 0. 1. 0. 1. 0. 1. 0. 1. 0. 1. 0. 1.
    0. 1. 0. 1. 0. 1. 0. 1. 0. 1. 0. 1. 0. 1. 0. 1. 0. 1. 0. 1. 0. 1. 0.
    1. 0. 1. 0. 1. 0. 1. 0. 1. 0. 1. 0. 1. 0. 1. 0. 1. 0. 1. 0. 1. 0. 1.
    0. 1. 0. 1. 0. 1. 0. 1. 0. 1. 0. 1. 0. 1. 0. 1. 0. 1. 0. 1. 0. 1. 0.
    1. 0. 1. 0. 1. 0. 1. 0. 1. 0. 1. 0. 1. 0. 1. 0. 1. 0. 1. 0. 1. 0. 1.
    0. 1. 0. 1. 0. 1. 0. 1. 0. 1. 0. 1. 0. 1. 0. 1. 0. 1. 0. 1. 0. 1. 0.
    1. 0. 1. 0. 1. 0. 1. 0. 1. 0. 1. 0. 1. 0. 1. 0. 1. 0. 1. 0. 1. 0. 1.
    0. 1. 0. 1. 0. 1. 0. 1. 0. 1. 0. 1. 0. 1. 0. 1. 0. 1. 0. 1. 0. 1. 0.
    1. 0. 1. 0. 1. 0. 1. 0. 1. 0. 1. 0. 1. 0. 1. 0. 1. 0. 1. 0. 1. 0. 1.
    0. 1. 0. 1. 0. 1. 0. 1. 0. 1. 0. 1. 0. 1. 0. 1. 0. 1. 0. 1. 0. 1. 0.
    1. 0. 1. 0. 1. 0. 1. 0. 1. 0. 1. 0. 1. 0. 1. 0. 1. 0. 1. 0. 1. 0. 1.
    0. 1. 0. 1. 0. 1. 0. 1. 0. 1. 0. 1. 0. 1. 0. 1. 0. 1. 0. 1. 0. 1. 0.
    1. 0. 1. 0. 1. 0. 1. 0. 1. 0. 1. 0. 1. 0. 1. 0. 1. 0. 1. 0. 1. 0. 1.
    0. 1. 0. 1. 0. 1. 0. 1. 0. 1. 0. 1. 0. 1. 0. 1. 0. 1. 0. 1. 0. 1. 0.
    1. 0. 1. 0. 1. 0. 1. 0. 1. 0. 1. 0. 1. 0. 1. 0. 1. 0. 1. 0. 1. 0. 1.
    0. 1. 0. 1. 0. 1. 0. 1. 0. 1. 0. 1. 0.</input_scale>
  <output_scale>
    1. 0. 1. 0. 1. 0. 1. 0. 1. 0. 1. 0. 1. 0. 1. 0. 1. 0. 1. 0. 1. 0.</output_scale>
  <inv_output_scale>
    1. 0. 1. 0. 1. 0. 1. 0. 1. 0. 1. 0. 1. 0. 1. 0. 1. 0. 1. 0. 1. 0.</inv_output_scale>
  <weights>
    <_>
      -5.0229049106766920e-03 -2.4500921287845066e-03
      -2.6346158132577388e-03 3.2260629915370326e-03
      3.6559082309523954e-04 -5.0892358648912247e-03
      -6.7559211152537274e-04 -6.5553061295612978e-03
      -3.2052092538813301e-03 -3.1216528652037757e-03
      7.2350978931578300e-03 -8.0773193490149054e-04
      5.8596485645766808e-03 5.2830013474962972e-03
      -4.2986290462928808e-04 4.4025975797066363e-03
      -4.4682801127412467e-03 4.1617436931346390e-03
      5.7361374219314799e-03 -2.7920248829486200e-04
      -2.0851296564649061e-03 -7.7071943267091803e-05
      1.3236291403256710e-04 -9.8113990489000582e-04
      2.4006056171392569e-03 2.8590721162876487e-04
      4.6166730640995598e-03 -3.3036109814362472e-03
      -4.9276871912080598e-03 8.0641859578922515e-05
      -2.4394877192391940e-03 -2.9029712513083425e-03
      7.9938504770683816e-03 -1.3154818658908411e-03
      2.0046278353232721e-03 1.9184643885371098e-03
      -1.0542263697452337e-03 3.7986065796887609e-03
      1.6155866091575185e-03 1.9085397103199464e-03
      7.7541776148921599e-03 6.3854205563681522e-03
      2.1699702058645227e-03 1.4595814964781619e-03
      1.3321742498896086e-03 -1.0538955710376319e-03
      4.5406183302258577e-03 5.3115609761033074e-03
      -5.3825321992038034e-03 -9.5407000825861634e-04
      7.6924912911309085e-03 -3.1410384050844370e-03
      -3.7163930580421355e-03 7.6782071774728262e-04
      6.8085659732975952e-03 6.9414486175188609e-03
      1.6437271326825271e-03 5.2902618543208312e-03
      -7.8025079185331256e-03 -1.8921525067322291e-03
      7.3745480620750906e-03 8.2114041518838881e-04
      -2.4446539354146331e-03 7.2601237210612049e-04
      4.8863727535409128e-03 -3.3323575477499324e-03
      -9.9073328221539118e-04 1.7576983678554826e-03
      -6.7063488489156275e-05 -4.3830779275288428e-03
      -3.3105211630423416e-03 -2.4967750797061459e-03
      -3.0479658539032863e-03 4.1984588313504047e-03
      -4.1708621942042811e-03 6.0367391043889447e-03
      -7.4388047129713628e-03 7.2999992864436845e-03
      3.6656317933284640e-03 -2.7921810423708238e-03
      1.8109791151315550e-03 3.6801225274945750e-03
      1.0423936285410709e-03 2.0907146513063938e-03
      -2.0271670297581021e-03 -5.9736978832123852e-04
      -2.7862030004795505e-03 -3.1404195221411777e-03
      -2.6302288913039348e-03 3.7499705220821980e-04
      -3.3780877751674507e-03 -7.2341541489780144e-03
      5.9364750318039979e-03 5.7244125755885004e-03
      7.3994602232513448e-04 4.9598098711329034e-04
      -3.6400186177899430e-03 -1.6015862001341398e-03
      1.3590733624251753e-03 -1.8014333254190813e-03
      5.1001528465056923e-04 2.4963753186134602e-03
      -3.8185179378659854e-03 4.4044123202923811e-03
      5.5534318984085534e-03 -6.8489991066659681e-04
      8.8833281934835363e-04 -2.8501835821922025e-03
      -6.1526226409832551e-03 3.2717749159823909e-03
      4.5633665814314916e-03 -1.8527569208599437e-03
      5.3338765207964697e-03 3.2938868270742340e-03
      -6.2505809043031553e-04 -2.3555395710109948e-03
      -3.0130016315545454e-04 3.4573875287142032e-03
      1.1927402884102315e-03 -2.3525906154043433e-03
      -6.6463739176773440e-04 -3.6895901660184719e-03
      -1.2767630719301773e-03 2.5393345082160633e-03
      2.0377119004798589e-03 2.1802383833163476e-03
      3.9187578362027140e-03 2.0782627286531235e-03
      -1.0663064539437859e-03 -1.9577363679367866e-04
      -1.5533617331740814e-03 -2.6606839950449710e-03
      4.9021146319987484e-03 -2.1583962055016915e-03
      -4.7072028764246287e-05 6.1299086332238103e-04
      -1.1310311249319871e-03 4.3106998284731359e-03
      -1.2089735214919398e-03 2.5544579908165447e-03
      5.6269916610854377e-03 2.7322404105630774e-03
      6.6076853461685412e-03 -9.2093671146311880e-04
      2.1582752682464262e-03 -1.9383090502336586e-03
      1.9602110389255567e-03 3.9697322949426104e-03
      -5.0523266823406954e-03 -1.1955122980614528e-03
      5.8755691699941782e-03 -5.8897008298171355e-03
      -1.5413892389877542e-04 1.1798943171784509e-04
      4.4437708413688718e-03 3.3922168551075529e-03
      -1.5584012950816794e-03 3.7645471631459269e-03
      -5.4277050579491278e-03 3.9802821735984125e-03
      3.8273473988063782e-03 -1.3014839345975940e-03
      9.8481172292513332e-04 -1.2780387120780020e-03
      4.6557054018031823e-03 -3.3730155473842313e-03
      8.3107538326754305e-04 1.2689636700219124e-03
      1.7370363326303616e-03 -2.8886750363688869e-03
      -1.6313786224404056e-03 2.6640672260470196e-03
      -2.1415792796913280e-03 5.7792070544867929e-04
      -2.5266375663258582e-03 5.0451159656477338e-03
      -6.2515918251705516e-03 2.8542959472170905e-03
      3.4933013889827257e-04 -6.2406763552616095e-04
      -2.2427915612410485e-03 9.8356885157784360e-04
      1.7351912289207661e-03 8.7083735412432140e-04
      -2.8497771817965561e-03 -1.9282108193283735e-03
      -3.4650689534802869e-03 -1.8443698221810168e-03
      2.6810171977282690e-03 1.8711080517870697e-03
      -1.0499222355165013e-03 -1.7487419286357931e-03
      3.9729592784028501e-03 4.2995967706727740e-04
      6.9176606810447650e-04 1.0812831361055508e-03
      -4.0993097375326892e-03 -4.1558685277780347e-04
      2.7533982586775770e-03 1.1290606367763396e-03
      5.1959830567478336e-04 4.0043161750443089e-03
      -8.6987212875613354e-03 2.2015239361926980e-03
      6.4922549770677022e-03 -4.6827017180427481e-04
      -1.9914225367496027e-03 -1.4435945394370695e-03
      -6.0758306971237987e-03 4.0749142295872500e-03
      7.1495615877707943e-03 1.6955709777798069e-05
      6.8038573805588951e-03 7.3862869848210708e-03
      1.8444034300916104e-03 -2.2684227554582697e-03
      3.5815180303975587e-03 5.0030710383175770e-03
      5.7749727522144476e-03 -4.7876374308846838e-03
      -6.6785527251490655e-04 -4.5468368771609544e-03
      -6.1528006817246011e-06 1.3192278060385923e-03
      -2.2299451423818501e-04 5.9593877634788661e-03
      3.8014471349706795e-03 2.0931348138885421e-04
      -5.2569322842179493e-03 -9.3512931187665749e-05
      -2.3305737515824337e-03 -4.0561123468171928e-03
      7.9995164547943358e-03 -2.6981026683935531e-03
      -3.3348566258229210e-03 4.4709684583832572e-03
      -9.7154725981358808e-04 3.6257626634221907e-03
      3.6306934326708322e-05 -1.3793885868423510e-03
      9.2682616540019861e-03 2.5405432877507019e-03
      9.5412406887751492e-03 1.7691908721272473e-03
      6.2580144120657618e-03 9.9419685532492019e-04
      1.5486233950378794e-03 8.5528740679371561e-03
      -5.1421905816979889e-03 -2.5913314415542867e-03
      5.3387775895233081e-03 -8.9015800290877817e-03
      -1.3350319841631045e-03 1.4862731249586426e-03
      4.6533762605497448e-03 4.6959486111689420e-03
      2.2344927703120978e-03 8.6721553672740466e-06
      -6.5635074795221795e-03 5.2820647948176088e-03
      3.5242407661835223e-04 3.1375082704594957e-03
      5.2031942874844412e-03 -9.3104053138938091e-04
      5.8099141767601467e-03 -5.3441809883328258e-03
      3.9269082130223990e-03 2.9979837806475983e-04
      1.4109009757596921e-03 3.5536658943994669e-03
      -4.2781723449445835e-03 3.0986643094002993e-03
      -8.7288357885395584e-04 2.5640705262331234e-03
      8.4912899988613059e-04 1.7997221260088198e-03
      -3.6828972634251802e-03 5.5448052186143947e-03
      -4.0296416328681551e-03 2.0003524516996828e-03
      -1.7942436280099282e-03 1.7636452885310110e-03
      -7.4643554115601273e-04 -1.4528069587773093e-03
      -4.5431481425465374e-03 -7.4731423051716081e-04
      1.5413389734316876e-03 -1.0648682362575529e-04
      1.6902330244780673e-03 3.1550521903684729e-03
      2.2316877278348059e-03 1.6151529713148243e-03
      4.9794168395177786e-03 3.7637345046639351e-03
      2.0980420634745525e-03 3.8360867308818119e-03
      -4.5541867832729404e-03 2.7855734872063121e-03
      1.4703022860530920e-03 -1.6468463991430990e-03
      -4.7902842861569320e-03 1.0731563045490269e-03
      -3.2345140567036507e-04 4.6607340421055349e-03
      1.1706505178441947e-03 2.1434797912710593e-03
      -4.2524877591897086e-03 -1.2880516635535998e-03
      -5.0635414007213237e-03 -2.4648714242352068e-03
      3.9020021670626757e-03 -2.1465140875186905e-04
      9.0083360363545015e-03 3.1211354238484400e-03
      -4.6647997427745544e-03 -8.6107204924810174e-04
      4.9836893139263812e-06 1.2543946823345082e-03
      5.1893149920695858e-03 2.5587932292151822e-03
      -3.3825178323824414e-03 -3.0287163086118304e-03
      -3.5504250902589460e-03 1.0461746230256329e-04
      6.5614287039118065e-04 1.9941652233789447e-03
      4.4645562256656370e-03 -2.2788676592241939e-03
      3.5878181147230143e-04 4.9369565916201254e-03
      -3.5553024222280279e-03 -4.8655088468245004e-03
      3.1171715095660939e-03 -3.9663393995889827e-03
      1.0348933004727682e-03 3.6705004945711767e-03
      2.2380146610485418e-03 -3.1431539333218266e-03
      2.7507033114075501e-03 9.0019085164957089e-04
      4.2155104976601600e-03 4.6586283873217577e-03
      4.1318491074180102e-03 8.6535678430970254e-04
      3.2199022225142172e-05 -2.6744291402559452e-03
      4.5074165525914346e-03 2.6163819663750252e-03
      -4.3939201264630657e-03 3.5200275834171655e-03
      2.5936280994244424e-03 -8.0899752662560043e-03
      -3.1016250216004602e-04 7.0556588225652111e-04
      6.0683858339481752e-03 3.7038012797654955e-03
      1.3169897481554635e-03 4.8711535384937535e-03
      -8.0620678469365860e-03 -1.2074284106253464e-03
      4.1208820242204144e-04 4.4418494347663031e-03
      1.1330791118072067e-03 1.1861587763030037e-03
      9.1081163240454167e-03 -4.8546480125708407e-03
      -1.8834285349827585e-03 2.1351957046856613e-03
      -8.6725688075534621e-04 5.5419751409073795e-04
      -1.1828521626377187e-03 -1.9053511298473701e-03
      2.0608830983406203e-03 4.0439178391456629e-03
      -1.0112139298581655e-03 3.2016264019517852e-03
      -7.7609595630738050e-03 5.2505348002837571e-03
      4.5757062175168419e-03 3.4948459093468646e-03
      3.3292074560324751e-03 -3.2522984069111582e-03
      3.8154851553696104e-03 -5.0730397275369566e-03
      -1.0657082402792111e-03 2.4281798138493550e-03
      1.8074006801290622e-03 5.2824950651386476e-04
      1.3458892205798019e-03 2.4308842107448069e-03
      2.1388501750472287e-03 -1.5959906668128745e-03
      5.6975459000814582e-03 5.6894208138461317e-03
      9.9735245029266011e-04 -1.2484450013033351e-04
      -2.8746007007909081e-03 3.9888253152473236e-03
      1.8036385191740672e-03 -2.6497399879148111e-03
      -1.4459722725801830e-03 8.3308880745185872e-05
      -5.5450808248725114e-03 -2.5648303822170087e-04
      2.9176251740044906e-03 -5.2070553910057290e-03
      -3.7478580948520019e-03 2.8865971114087598e-04
      -3.3229513088387599e-03 3.6824715558956039e-03
      1.9897929988910972e-03 -1.6270332255804382e-03
      4.9379786428932742e-03 3.4896956617813941e-03
      -2.0891826361052429e-03 1.0179546875093153e-03
      -2.5240778979430506e-03 -1.5065043715790986e-04
      4.4135300687952470e-03 -2.7458236316095369e-03
      -1.0832252181359296e-03 -3.4117266184284867e-03
      -1.2909201198838571e-03 -5.4580738343939150e-04
      -1.0703733873144016e-03 -1.4925702618077458e-03
      1.7265995170778743e-03 -1.7193229200411917e-04
      -3.1343036194277341e-03 -1.2826816752277027e-03
      -1.9917702855196222e-03 -3.3941976854221555e-03
      4.9418117847744858e-03 1.7443045366904511e-03
      -1.1950282280941095e-03 6.3032611682770990e-03
      -2.7339007508229611e-03 3.1413704770471762e-03
      1.4627544409603580e-03 -1.5146457459833313e-03
      4.3195650831820238e-03 5.0445914844535877e-03
      3.4601328075235418e-03 1.4711499769827845e-03
      1.7363221154648621e-03 -6.6465722183027889e-04
      3.1690729984274395e-03 1.5927740353797550e-03
      -4.4817818907332057e-03 -3.9434198933287201e-03
      2.5264575232080097e-03 -3.7497855194090750e-03
      8.8712187519940074e-04 1.0093567605162041e-03
      3.8872138334238048e-03 2.1559162340243632e-03
      3.4684255538826344e-03 4.4490443109946833e-04
      -3.0837937095342226e-03 2.2846911860445957e-03
      -9.7518489867654641e-04 2.0575466867623015e-03
      3.0898504617069683e-04 -1.3382873491059742e-03
      4.3615909353085392e-03 -1.0795691801163112e-03
      -2.3204285010597177e-04 3.5961491303956859e-03
      1.2253981657846422e-03 4.2421085996275959e-04
      -3.2772173027593213e-03 4.1932265372767912e-03
      -4.1180259461025796e-04 -1.8328461140606394e-03
      -1.8983993826064680e-03 1.6709365538352639e-03
      -3.1240690852289521e-03 4.4853663083579834e-03
      -1.2327831353748156e-03 2.0478236371537233e-03
      -1.2725673063110057e-03 1.9028047855198793e-03
      3.2148835561824412e-03 6.0480576100724207e-04
      -2.7860636223035287e-03 3.8922801609300081e-05
      -4.1926896777857679e-03 -4.0813062437088246e-03
      -3.9007082388513168e-04 4.0949740004589467e-04
      1.4318238579063734e-03 -4.4661012020083104e-03
      6.2000782335813861e-04 5.4906533887877894e-04
      -1.0203263089267579e-03 2.0000262186228739e-03
      -5.4533089788159439e-04 2.2629583144957296e-03
      3.9858027114653130e-03 3.4187708899789632e-03
      -4.7139186074411556e-03 3.3161989870643793e-03
      -6.1658969379003775e-04 4.3232970831091708e-03
      4.5757519702256571e-03 1.5994151185482874e-03
      -4.8092053618709843e-04 -9.0552278340390465e-04
      -4.3890621998065010e-04 -2.6507041435977958e-03
      -2.1421020064331586e-03 -3.3565157899864925e-03
      -1.3613692781332040e-03 -2.1289545908744151e-03
      2.7819927270121531e-04 -9.4186840020454789e-04
      3.1592840374498024e-03 -9.4013791912871889e-03
      -5.5538199956606327e-03 3.0767086147115311e-04
      4.2713698295046738e-03 3.8876786487670712e-03
      -3.3637977877916721e-03 3.5272520502018846e-03
      -6.1144628170775846e-03 -2.1432394527479983e-03
      5.5800700909191148e-04 -4.7566840855477850e-04
      7.3441083037408574e-03 -2.7314086535189328e-03
      1.6492627810116764e-03 1.6086771213366863e-03
      1.8853657876450284e-03 -1.7159127017313588e-03
      2.2052299516511441e-03 6.3297447884449690e-03
      7.4460173576471305e-04 -3.3287801964501764e-03
      2.3261520464033037e-03 2.8043866354746012e-03
      -7.9043934574752478e-03 -1.5479778186381797e-03
      3.9628085174422106e-03 3.6549703680264531e-03
      -2.8142073417225088e-03 3.4553166651103118e-03
      4.1254571388637032e-04 -3.8322583625174681e-03
      -3.7145680536945164e-03 -3.6036468100443778e-03
      -9.2129259726473267e-04 -1.7328967107550638e-03
      6.2954000928918015e-03 -4.9880246748881547e-03
      -2.9800013453206391e-04 -3.1335938267107967e-03
      1.0970190819920051e-03 -1.2359838718016814e-03
      -2.6421256387411766e-03 -1.8006102865075174e-04
      2.0609818963697045e-03 -4.8204786908951905e-03
      -3.6736784552122986e-04 -4.9467907821334938e-03
      -4.7313513830289913e-03 -2.1855964334581866e-03
      2.8335434527054682e-03 -1.9167280979509528e-03
      -1.7687549590490292e-03 2.8221126648546374e-03
      9.7869645010655775e-04 -1.1024140885710426e-03
      1.2994612447382043e-03 -1.7516667658476343e-03
      5.4945512936874262e-03 -4.4581598015984644e-03
      3.2310903840970214e-03 4.4913859048464413e-03
      3.3917360322643785e-03 3.0930830855615617e-03
      -5.6628972961852977e-03 -3.3353765033683814e-03
      -7.7724568476661166e-04 2.1104830151844546e-03
      -1.1201033921469539e-03 -7.3022024112987958e-04
      1.2377439834180609e-03 -3.1955516149568173e-03
      2.5222668497991560e-03 -5.9600554916399246e-03
      -2.5427857844497457e-03 -1.3691997352357553e-03
      1.0818665246229407e-03 -1.0174618065093483e-03
      -1.2903693286785115e-03 -2.7933848134114466e-03
      1.0557877915950628e-03 1.9257052069644039e-03
      -1.6392926209624790e-03 3.6407460162092521e-03
      1.9932796962150146e-03 3.4750956205995920e-04
      1.6432022425962786e-03 -2.7803413871426929e-03
      -1.2720325576116975e-03 1.2891059136217922e-03
      2.9113234761625607e-03 1.9759115537941157e-04
      1.3687423944590039e-03 1.0845633962589874e-03
      1.7155427982672034e-03 3.4470955750076607e-03
      -1.7942363245771762e-03 3.1064399069844265e-04
      1.8467045362970996e-03 -2.4458859538056523e-04
      4.4311687095923633e-03 2.1523017765836235e-03
      -2.9638930955329002e-03 -1.2972670888481987e-03
      5.1057841410784505e-03 1.0412199455357703e-03
      5.4758994817285983e-05 -2.2782978272727883e-03
      -2.4162854997607512e-03 5.4054529534256664e-03
      -1.4429846647980057e-03 1.1097265174864956e-03
      -3.8797604884168333e-03 1.2786900382129672e-03
      -2.5598820986220084e-03 -2.8693360322268237e-03
      -3.0718782961836563e-03 4.7117887994296932e-03
      -5.3155294471990818e-03 -3.1906351715132713e-03
      2.0561154747436225e-04 -3.2992505017599280e-03
      -5.3326540730152058e-05 -2.1239139648019859e-04
      -1.7447409168417857e-03 -5.6351300599905745e-03
      -2.9592259254296901e-05 -1.1770658124560568e-03
      -1.7198044567029358e-03 -1.7475696752214441e-03
      7.3365889524368570e-04 -1.0492448497991715e-03
      3.2047724775523651e-03 3.7005051593402860e-03
      -6.1143992501976642e-03 -2.3821015262686109e-03
      -1.2092610949641627e-03 1.2598929407786387e-03
      2.5983263927236398e-03 -3.6189062879834581e-03
      -1.1208292247954486e-03 2.3863708344033234e-03
      -2.1308966961038878e-04 -4.7552335181174979e-03
      -2.7073185139779733e-03 -3.4297083738536109e-04
      5.5895441900081083e-03 -1.5954236185694967e-03
      -1.2252410395411336e-03 -3.4705926086974889e-03
      -3.5534654919806095e-03 -2.6538139272328622e-03
      5.0608185316585277e-04 4.8426337007216628e-03
      -3.0493028418036592e-03 -2.4201955616302701e-03
      2.3234301055326707e-03 2.8479048073273383e-03
      1.0121748020423919e-03 -5.9501076597945476e-04
      2.2449158466213556e-03 -1.1565313446433455e-03
      -1.5640337524160232e-03 -1.3607323506151640e-03
      -1.2265313909439108e-03 -1.4064654716381827e-03
      -1.5120848619660839e-03 -2.8292045352109620e-03
      -3.1821241555206057e-03 -2.3191829526581016e-03
      3.7178921569263638e-03 1.0891792337261843e-03
      -3.6837456897575185e-03 -1.7887860352181911e-03
      2.7812467251968997e-03 2.2527808395314216e-03
      -3.0100177599916947e-05 1.1776857672066410e-03
      2.3042930341216879e-03 3.8542131263754834e-03
      -1.5210212254417206e-03 -2.1478687248442196e-03
      -3.8331969930781892e-03 -5.4405266284289228e-03
      -1.4682313846604003e-03 -1.3509190788978567e-03
      2.5143289711599269e-03 -1.3722814608638521e-04
      -8.1464954947232926e-04 -2.8844766440052098e-03
      -6.5689547262469004e-03 -7.9101059253683260e-03
      -2.5648304611409399e-04 8.1567840450869641e-04
      -6.7696799311969570e-03 -5.4752032265422486e-04
      8.7907872320860513e-04 -2.7397253928621236e-03
      2.5704522099989293e-03 8.5932827978067519e-03
      -7.3523653815378434e-03 -4.0857355490201966e-03
      5.0439538922788358e-04 2.9245997167408767e-03
      -5.0912070456329119e-03 3.4466705310624163e-04
      1.9542108562084390e-04 3.9220098261312127e-03
      7.1079157218632413e-03 -1.0682474000669016e-02
      -6.5906200694281422e-03 -2.1401595274977316e-04
      1.5941211302861499e-03 3.8884516865702718e-03
      4.4052248009714265e-03 -1.1104121005136006e-03
      -5.5944957137985495e-03 -2.9913545936610247e-03
      2.7635456355012281e-03 7.4103455371030838e-03
      -1.3617872054090168e-03 -5.4068573688651174e-03
      -8.1481351386447059e-03 6.1737203406630210e-03
      1.9108674657331078e-03 1.2368164542049274e-02
      -4.5220187939157925e-03 -4.8330490900470487e-03
      -1.8549706868737923e-03 -7.8828263976438810e-05
      -1.7515868110975275e-03 -1.9825140607973809e-03
      -2.1794145310626138e-03 -5.3258023840517109e-05
      5.7981853416911719e-03 1.5138900323173937e-03
      3.1160274548219327e-03 -3.1494373945901745e-03
      -1.5393841579475088e-03 2.2764734954751026e-03
      -1.6034759139129592e-03 9.8104268181632096e-04
      -2.9096091445697542e-03 4.4388291543019896e-03
      4.1711459217356984e-03 -3.5921838287957192e-03
      -8.2248333690517084e-03 -3.1229474923825408e-04
      5.7387799739545857e-03 5.1934474158477203e-03
      4.7719084728276477e-03 6.1188542220054825e-03
      -6.1395362025818561e-04 -8.7923203699445656e-03
      3.8248139538800178e-03 1.6900220727557684e-03
      -4.2568514571101829e-03 -5.0514019116758586e-03
      -8.7030066315934053e-03 2.2017905548705821e-03
      -4.5523990956135860e-03 3.4352642573371643e-04
      5.5572724693102376e-03 -8.4161429607734078e-04
      3.1939299470229001e-03 -3.2523569778942677e-04
      -1.6092277766982142e-03 6.6283647958325573e-03
      7.2325377519522754e-03 5.3223391047617038e-04
      -8.3948861362055770e-03 -1.9408635153639927e-03
      -3.0487969760198924e-03 -6.4745580993574971e-03
      -3.9506753492216835e-03 -3.1184233781142430e-03
      5.7065663352466427e-03 2.2606533485296158e-03
      -1.8973057761790689e-03 1.6518837787183971e-03
      8.6172518549158719e-04 7.5839319184471217e-03
      1.6059379356736423e-03 1.2270889299336053e-02
      -4.1559863120009099e-03 -1.0212731782857312e-04
      1.6821011037819334e-03 6.6959188799787866e-04
      -3.7653522468380609e-03 4.2155799474225672e-03
      -3.4422046279712027e-03 2.4607133734633763e-03
      -1.5549008889672656e-03 -3.0870291044218295e-03
      -6.9525675934894906e-04 -2.5341165455438587e-03
      2.1661589209948044e-04 1.4655640895814516e-03
      -2.5433907724428540e-03 -2.4653281698374658e-03
      6.2810731386847259e-03 -2.8024038920784885e-03
      -1.1800631587412004e-03 9.7480949968106897e-04
      2.8207895584803576e-03 3.2588236123079675e-03
      -1.7703241264253368e-03 5.1110606293360136e-03
      -4.6146018567888398e-03 4.0691584874211033e-03
      3.4046645396211745e-03 9.8234123237334964e-05
      4.9048549189658281e-03 9.5866704533538656e-04
      -2.5873628465598645e-03 -1.0033600779902261e-03
      -1.8722037596053060e-04 4.6147153935677981e-04
      1.2234923406972144e-03 1.5643759906932798e-03
      4.0378887097773297e-03 -3.1072846071075956e-03
      1.1014382894632231e-03 3.3189155960370724e-04
      -7.8214949889867155e-03 -3.8606004466164899e-03
      2.2358365070084389e-03 5.7836797241352482e-03
      -4.8385897693767419e-03 1.3462632633562714e-03
      5.9909097871736422e-03 -2.3575512910080274e-03
      -3.8788174531036103e-03 -1.4609628998694447e-03
      -3.6173934339206711e-03 -2.0346239361031943e-03
      6.1699260547415785e-03 -5.8390445797364230e-04
      4.1527493739674775e-03 -1.7115356395827059e-03
      3.2113833104472737e-03 -3.3863129185607251e-03
      -4.2306298601142329e-03 -9.6578764829737223e-04
      6.6199855178351852e-04 2.7880842265103935e-04
      -1.2220030957151341e-03 -2.2654380679853364e-03
      -4.8393573765952956e-03 -2.8604459972446789e-03
      -2.9132149204411160e-04 -8.2387480956719751e-04
      -1.1503959926474668e-03 6.0886280261506203e-03
      1.0880837910775107e-03 -1.2235375754416902e-03
      4.9076673730534251e-03 2.4368707319750728e-03
      6.7061029976666188e-03 -9.5485621258476069e-04
      6.1234268680375259e-03 3.8703465937932422e-03
      3.6162467264818482e-03 3.5043731051421800e-03
      -2.5021923021796171e-03 -3.2023013690979166e-03
      2.3851774695059129e-03 -7.5235945122553664e-03
      -4.1414375941195607e-04 -5.2745438538852000e-03
      5.4317905700990848e-03 -4.5937684275094287e-03
      4.0428418648623277e-03 -1.8780255803875763e-03
      4.1002798918255163e-03 8.6352290109118184e-04
      4.6712529451080478e-04 -3.4125449578666594e-04
      6.7245131858407201e-04 -2.4197731493404589e-03
      -1.4241612884735738e-03 1.5206602253820998e-03
      -3.7704606010250698e-03 -2.3999436264630632e-03
      3.8839759745791223e-03 2.5366720528587818e-03
      -2.4484120749133525e-03 7.6352607237515919e-04
      3.6861914623104019e-03 -2.9698025408298290e-03
      -4.7337647386686108e-04 -1.8239016909869250e-03
      2.2360921566730912e-04 -7.9054081216198811e-04
      -2.6259295464401964e-03 4.8059457712341990e-04
      -1.4099659407584510e-03 -2.4685226527405109e-03
      -1.3913158751861143e-03 5.2305356589648781e-05
      -4.9071670504880916e-03 -1.9085653436488950e-03
      -5.2434537086405286e-04 -1.4465302861408475e-03
      -5.0092376167628350e-03 7.2916293225897075e-04
      5.0738382541587650e-03 2.1076929827340911e-03
      7.2217850942700307e-03 -4.1585503519118820e-03
      -4.9926304433783755e-04 3.7605005957382534e-03
      2.9891783963658367e-03 -2.0666560730605884e-03
      -2.1178690896447444e-03 6.7654366617188868e-03
      -2.0680129722680323e-03 2.0574419950704910e-03
      -2.0060798372705603e-04 1.3623222393886248e-04
      3.0465100496078744e-04 5.3815347621503440e-04
      3.2704764812182706e-03 -2.9230465386802106e-03
      -1.5460210039816265e-03 1.8076203754272306e-03
      -6.7781249466204322e-03 -2.6089192782749295e-03
      1.9722752933926777e-03 -1.9238976568440231e-03
      -2.2149987506281339e-04 -4.8233798012201319e-03
      1.8738944206161804e-03 -9.0690305517824178e-04
      -3.4385036108517200e-04 9.9783919362527265e-04
      1.5278539746442900e-03 -4.8934800845256152e-03
      1.4041399069026383e-03 -5.3899987391405040e-03
      -2.3818258260632739e-03 7.8899301202715942e-04
      4.9261712170409885e-03 2.2421383101493999e-03
      -4.8218102075941556e-03 1.0187729874085473e-03
      -4.5138725103809098e-03 -6.6231373673312664e-04
      -4.4205710621063867e-03 1.4186527081849604e-03
      2.6621867126401704e-03 1.5733382716874271e-04
      2.3998356324066851e-03 1.5956512572659633e-03
      -2.2106138291780276e-03 5.9051580386712478e-04
      -1.4360202002924156e-03 -5.3285968495385882e-04
      -1.0919472047694885e-03 4.0566114474875773e-03
      -2.1539602010262038e-03 -4.6338531002690668e-04
      -2.7818346235461331e-03 -5.7131131369300278e-03
      3.0786584853333067e-03 -1.7516595417941647e-03
      9.7702351375161898e-04 4.9241909722168437e-03
      1.3735554801371135e-03 -3.7746810942206784e-03
      -4.1858726279961700e-03 -1.2415404473740750e-03
      -1.4956827881275113e-03 -3.9292336051669602e-04
      -3.0494063140420863e-03 -5.8181381816182851e-03
      -9.5775339943810183e-04 7.5114001673771394e-04
      -1.9122828510293160e-03 1.4553883214167202e-03
      2.0551890951063085e-03 1.2701227813429979e-03
      1.6166268978022222e-03 8.3651344911119159e-05
      4.1215392926178245e-03 3.6875249710933058e-03
      4.5872058149178829e-04 9.6451368856683792e-05
      -1.1951926049176876e-04 -2.3742078173673523e-03
      -3.7681007068182497e-04 6.1532675375907861e-04
      -2.4925805058854398e-03 -6.9084858936550636e-04
      -5.0174100399742660e-03 4.9958721858068145e-03
      -5.0614833471803041e-04 -5.9751781872482475e-03
      4.0569971167667704e-03 -7.1339963133498004e-04
      -6.7698645434069221e-04 -4.1925240720023802e-03
      -3.5337633261887918e-03 -1.7910353594090989e-03
      -1.9506286403303233e-03 -1.7978754434252626e-04
      3.1937767444730194e-03 -1.5676780429322113e-03
      3.6478136081223292e-03 -3.8909460865970509e-03
      -9.9084408561858259e-04 3.3378181153601769e-03
      3.8351815019107803e-03 -3.6678645656047708e-03
      -2.8517141862023638e-03 5.9805648688047780e-03
      -3.9760747675612086e-03 3.5839300795963021e-03
      -2.2325424755533802e-03 -5.6908358495915898e-04
      -2.0267430319922844e-03 1.5318463794616170e-03
      3.0832947226026720e-03 1.8181103809972086e-03
      -2.7913027116679904e-03 -2.0627508755537327e-03
      -6.2904789295777910e-03 -3.9566953866861272e-03
      3.7249322005083914e-03 -3.9128346941417506e-03
      -2.2767538072536475e-03 -1.9078542486480631e-03
      4.5993225205894521e-03 2.2382603207472384e-03
      -6.0440580490369418e-03 4.6821048683428424e-03
      1.1812888351074096e-03 -3.3382340186855941e-03
      -1.4805254680997043e-03 -9.6177132993142313e-03
      -2.3181202902592402e-03 -1.8343337561715542e-03
      3.5563983778486470e-03 2.4388358999922395e-03
      -5.1297637571783806e-03 -9.1664796428092164e-04
      2.6474673761748323e-03 -7.2832672763491419e-04
      -6.2905232530792946e-03 3.4250827148663149e-03
      3.6723725467212878e-04 -1.2319590688048877e-03
      2.2629720636780978e-03 3.4691985317673287e-03
      2.4451028889124534e-03 1.3635360246248087e-03
      -1.7350962578603288e-04 -3.0459215544428103e-03
      -2.3268970144764757e-03 -4.7234744815336672e-03
      2.8432615957978140e-03 -5.4293031493795703e-03
      -1.8245101852444354e-03 -6.0191696452382053e-03
      2.4286698080331744e-04 -1.2711232900713687e-03
      -8.0074057487920444e-04 3.3978564289473246e-03
      2.6003923990530827e-03 -2.4727901299596913e-03
      -9.3061439387243382e-05 -1.6072348636449439e-03
      -4.5647920870189474e-03 -1.6101758040489946e-03
      5.6296423174562410e-04 7.5693649065252343e-04
      -5.6292868943879863e-03 -1.5757390822532691e-04
      1.7710808604884655e-04 4.4967415669888277e-04
      4.2076385481964722e-03 3.0271726612327932e-04
      -3.4537651832263231e-03 1.3306089158593350e-03
      2.9808170670123269e-03 9.1549748443495822e-04
      -4.2431020400413490e-03 2.8675437155739670e-03
      7.1562267306159444e-03 6.7361311193138039e-04
      2.3311342578381821e-03 1.6780079022878413e-03
      -1.7281780862749006e-03 5.2862146223896858e-03
      7.3731280449922413e-04 1.6388507950044764e-03
      -5.6778061944121971e-04 -2.4838042453975448e-03
      1.7850498357232674e-03 -1.6793211575169976e-03
      -1.6077950393160363e-03 -6.1987735177188984e-03
      -4.4638463629280431e-03 -6.9239934913632884e-03
      -1.0373429057096617e-03 -6.0534455818685487e-04
      4.3601595561531736e-03 3.1779080879672855e-03
      8.8094431336327439e-04 -5.8863391726829580e-04
      1.5279931085155044e-03 4.8865201837777579e-03
      4.0295617057456686e-03 -1.6829450763803985e-03
      -4.1261946713283546e-03 9.4574407797109131e-03
      -3.7604661552588118e-04 -7.3843739202392612e-04
      5.3923671233171804e-04 4.7544924000888367e-05
      3.2292285404383792e-03 5.6013436977557516e-03
      1.6997203742988010e-03 1.6180662329035821e-03
      -2.6785497336894236e-03 -4.1985093288096935e-04
      -1.8588859420542803e-03 7.1153849518802508e-04
      4.6087370524509853e-03 3.8472819545596840e-03
      -3.0949085334790452e-03 -4.6127844805445876e-03
      -8.5895538375660205e-06 -2.8900619363517277e-03
      -2.3883928531237024e-03 3.0363929052941861e-03
      4.6172049374156171e-03 -5.1033462473618002e-03
      4.6061274377118917e-04 -6.0351174583772975e-03
      -1.8941159285642724e-03 -2.1202220972326310e-03
      3.2309027723678419e-03 3.2017216876860347e-03
      -3.3509225301742275e-03 -1.1194179994152081e-03
      -2.4679613974152395e-03 -3.9230930201958076e-03
      -9.5300561502343045e-03 3.2737494759012844e-03
      7.7929529775156142e-03 -3.2161561570114576e-03
      -7.5371224112253169e-04 2.7696245894939975e-03
      -6.3451446483748120e-04 7.3787369717378713e-04
      -3.8106049571261279e-03 -1.8241851675356907e-03
      4.0631826460710474e-05 -3.3276845235250814e-03
      2.2679224289727440e-03 -3.9705495759358661e-03
      -4.8790559385573752e-03 -3.0431355619902293e-03
      3.6123567407298335e-03 -4.9215955157116522e-03
      3.7930404442184317e-05 3.3116626267470279e-03
      1.8962811376960941e-04 -4.5694866038263381e-03
      -5.4438613527075630e-04 -3.2020038661944041e-03
      3.8169649567835235e-03 -5.8600328952857449e-04
      -4.4101120822364710e-03 -2.5003880158545400e-03
      -5.3892461950162483e-03 -1.0085584143513450e-03
      -1.7354820437072752e-03 -8.2748044061545635e-04
      4.9438044530067155e-04 5.5570259511968990e-04
      1.7224593134168133e-03 -4.2036041371592192e-04
      -2.0184185130223747e-03 -3.6524503521962750e-03
      5.4456696745610591e-03 3.3476583087261695e-03
      -1.0449257794311868e-03 2.0851237128447992e-03
      3.7696488290003462e-03 3.1211952743416473e-03
      4.0948268845888676e-03 -3.0481045781174314e-03
      -7.9708243215139852e-03 -3.1439445683211360e-04
      -3.7598946726870581e-03 -1.0144260388014275e-03
      -1.1731550214767854e-03 -1.2815082792757293e-04
      1.5620456130064370e-04 -2.7577518445450395e-03
      -2.6473733922966224e-03 -9.2080976914238224e-06
      -1.4355260771560672e-03 1.7567205277124870e-03
      1.8962671833519297e-03 3.4723369872754724e-04
      -4.4439693988241588e-04 -1.9137562629083650e-03
      -1.2010198447513119e-03 4.2838147697940171e-03
      2.2281833626256625e-03 2.4410855766740947e-03
      1.1677837767874470e-03 2.4964207153149519e-03
      -3.3053841295331964e-03 -3.6826780705844359e-03
      5.1681159721948585e-03 -1.8986735484647060e-03
      2.9160015899875446e-03 -3.8589070189733112e-04
      -2.3411879709272776e-03 1.9293473084579971e-03
      -5.1309475530577483e-03 -2.2203970001794574e-03
      -6.9435604976939257e-03 1.8656806754867798e-03
      -1.6670037886898307e-03 2.6070954229580391e-03
      -9.6118468352557004e-04 -5.3116234181238660e-03
      -1.5665096628805619e-03 -1.6499336475267123e-03
      -5.8065524786774935e-04 6.7668671416919299e-04
      -6.7741364982081128e-04 -1.5678723683897507e-03
      5.9515769666287986e-04 -1.9726026130625594e-03
      -4.6541579655242997e-04 -1.4374709103138819e-03
      3.1070513699431950e-03 1.1025043747352700e-03
      -1.7712822772630683e-03 -1.3652693273344800e-03
      -6.3872339806827286e-03 1.4411801583931172e-03
      -2.6620727733349635e-03 4.0309221912011011e-03
      3.3775901025315121e-03 5.0548395623324237e-04
      -1.9697776727214292e-03 -9.9425197971389013e-04
      2.1817872010736756e-03 -1.7018346669701318e-03
      -2.5578779719708242e-03 1.8759316147807193e-03
      -1.3804629848814096e-03 -4.7554798032733922e-03
      3.7233302957177701e-03 -5.5249552976723154e-03
      1.6346519658285048e-03 2.6150204649814713e-03
      2.7255925549545877e-03 -1.1677874540710047e-03
      -3.6921053079469138e-03 1.4399952220989221e-03
      -8.1536772683783807e-04 4.0654523068433561e-03
      -3.3036936923844505e-03 2.0528115644924926e-03
      -4.1489210506992215e-04 1.4298079114893570e-03
      -3.3400795915203016e-03 1.9556477547042739e-03
      9.5307221384511405e-04 -4.6674904964839363e-03
      9.7637311952370896e-04 -1.5083789658106577e-03
      -2.2111784340412130e-03 -7.1245653888308798e-04
      -1.4935655363815833e-03 -2.2885176462633376e-04
      -4.4468677868679966e-05 1.1050410015031021e-03
      2.6631642337227404e-03 -2.5727749690684955e-03
      -1.8586136131879560e-03 2.7399558953713551e-06
      -5.1720835207437173e-04 -1.9022327714990957e-04
      2.2583644776949432e-03 4.5393680458396535e-03
      1.0563991604370824e-03 6.7807075326685863e-04
      4.2624016310423996e-03 7.4004020724304084e-03
      1.3067679537779776e-04 -2.8931489537801372e-03
      5.8328556505391387e-03 7.7617427796003967e-03
      1.1077793415359908e-03 6.0384701054616366e-03
      3.0168448367318681e-03 -8.6828532446325964e-04
      6.2142371485469038e-04 -8.0187909852136360e-03
      -2.0706720063694874e-03 6.7659141038120124e-03
      -1.2489998586895435e-03 -2.6062937846585603e-03
      -6.1938334076994941e-03 3.4237626399166387e-03
      -2.1651739172802968e-04 -5.6831207757273216e-03
      -3.1625793406247606e-03 4.6829502476397143e-03
      -3.6510855696655527e-03 -6.1414900704642999e-04
      -3.3523195643935856e-03 -2.2546942612207653e-03
      -3.6724463750749817e-03 -1.8499642273271599e-03
      3.6191237294284570e-03 3.1031698852758779e-05
      4.6981803399982003e-03 -1.3853735465672297e-03
      8.1296497264256643e-04 -7.3120604982040104e-04
      4.5976024170659661e-03 2.7263435256777574e-03
      1.3847482744721803e-03 3.5394686372380905e-03
      9.4916594542000853e-04 -3.6288370805342310e-03
      -4.6154477153272548e-03 3.5065884515826911e-03
      -1.7116322016619374e-03 4.1092913107140441e-03
      -5.1873888525014438e-04 -2.0151724917608018e-03
      -1.1623520867912445e-03 -1.1999271834002311e-03
      -1.6718826301137285e-03 -9.2202351116386189e-04
      3.8853948407188343e-03 5.2442602964337113e-04
      1.4579130840765440e-03 -5.2993531558321151e-03
      -8.2421421430520139e-03 -3.1282261962783053e-03
      -1.2018259591057010e-03 -4.6652419855298613e-04
      -8.4347815442724198e-04 2.5376231087269671e-04
      2.4533138892553416e-03 3.6085014478169824e-03
      3.9043303612695973e-03 2.2594643169905138e-04
      5.2859877960754586e-04 -2.4651707080214049e-04
      1.6003154304952631e-03 2.6970548027102337e-03
      -2.5432701648558978e-03 2.7245049323010358e-03
      -2.0297865435630145e-03 -3.8686472427538342e-03
      -2.0281369300933711e-03 2.5141679892553507e-03
      1.2457228446390914e-03 6.8387463660141371e-03
      -2.1811116410206718e-03 3.3640875440992110e-03
      6.1283663794484558e-03 4.8685934410421681e-03
      5.2563496279203227e-04 -1.6493153202351179e-03
      1.5402902028718078e-03 2.9873940163911267e-03
      -1.0558031240369947e-04 -3.6725377228957702e-03
      9.7938570607650048e-05 -3.2272357798984620e-03
      -2.1038900028623859e-03 -2.5657049119274274e-06
      -9.5514197637104105e-04 2.1858805024194084e-03
      1.1998604774847437e-03 -5.0422806140539185e-03
      -7.5486403305542130e-04 -8.2312238443148602e-04
      -1.6518485613696854e-03 -1.5008560467796354e-03
      2.5301221354324822e-03 1.9690436570727432e-03
      4.1847624730148606e-03 1.4692265610666189e-03
      -7.0770075486656858e-04 3.0380417946307384e-03
      -1.3580758029187027e-03 -1.4031874453737832e-04
      -1.1092589438514917e-03 -5.6739918658833856e-03
      -5.9276078103724598e-03 -4.2432954257949421e-03
      6.6871660079262797e-04 2.1374419734472940e-03
      1.3580381787504149e-03 -3.2173378538374242e-03
      3.4533690039399425e-03 2.6160755049293793e-04
      1.8140952212561091e-03 -1.5242778227023011e-03
      -4.4784689213501656e-03 -3.2382067692892399e-03
      2.9459548164545621e-03 -4.2035021571543434e-04
      2.1052888909207650e-03 5.6026942676779381e-04
      1.8780993610423564e-03 4.1281617274258027e-03
      4.2490585587802963e-03 -7.9674773880357918e-04
      4.4674311031430245e-03 1.2231316940745050e-03
      2.8526747673210469e-03 9.9033977386374199e-05
      3.3315095065192435e-03 -4.4017094444086715e-03
      -4.6344044381634872e-03 4.1156649625427484e-03
      -2.6807545704146513e-03 -4.8420808804761517e-04
      -7.0167632411125997e-07 -2.8879038655846046e-04
      -2.6027349109478798e-03 -3.0046572793632105e-03
      2.8763821058125877e-03 2.5447059681734407e-03
      -2.6845331135863810e-03 1.4075649677013455e-03
      2.3953043378445700e-03 1.6686374159768777e-03
      -7.4069806734809840e-05 1.3801089452217484e-03
      -2.4545941339810303e-03 5.1071234748631660e-03
      3.6283441186794386e-04 9.1680587381709608e-04
      2.6338734870318516e-03 7.3399334109319053e-04
      -2.7861381908403857e-03 -1.6472991747345826e-03
      -6.9887732853307177e-05 1.3373286512158189e-03
      -1.9044018970716123e-03 6.8787856573573306e-05
      -5.7293440316176399e-03 -1.4497364116985575e-03
      -2.1093793074269097e-03 3.3938577326765055e-03
      -2.1066813400570893e-03 -4.5874565408596550e-03
      3.8810067661742016e-03 1.2307664758037123e-03
      1.2299236589112712e-04 -7.9419596870792262e-04
      -3.8485957497393962e-03 -1.8500412466825517e-03
      4.2051684317776904e-03 -2.8632227163651335e-04
      -1.1721134873335821e-03 4.5603001851242352e-03
      -2.3649671647018164e-03 -3.9458041056687973e-03
      -5.1577011999813654e-03 3.6380758215563843e-03
      2.8828048664426829e-03 -1.4115781975300218e-03
      -2.3366791541637676e-03 -5.1380973411915658e-03
      1.1766457081130730e-03 -1.2087306577475375e-03
      2.5882980834523494e-03 1.4566743583079981e-03
      4.4103548301761665e-03 8.7116505535882540e-04
      1.7492985852655754e-03 2.4782402983863764e-03
      -1.3428221496124223e-03 1.2597919755309315e-03
      -6.1433743356680373e-04 1.4942478873246222e-03
      1.5365663326881013e-03 3.0958242227256856e-03
      2.9023310148258308e-03 5.4255196638932322e-03
      9.8149638774752625e-04 -2.2860767953136996e-03
      1.6749395569494025e-03 7.8825619727404470e-03
      1.8548132687195120e-03 2.0399376197151550e-03
      -6.6146056570000865e-04 -6.5512264912538538e-03
      -1.4334096989936935e-03 -1.6596187876609760e-03
      5.0213450005921652e-03 3.9049681901007424e-03
      -7.4955297405454992e-04 -2.3652737612159759e-03
      -6.2089879727463687e-03 4.1144012835284760e-05
      -2.4755442183655137e-03 -5.0044678876389427e-03
      -1.6758296340470137e-03 6.4508443455973973e-04
      -3.2958445233709339e-03 -5.2892320802480674e-03
      -2.2510318847573721e-03 2.3899503995175723e-03
      -2.9588363309317536e-04 -5.7086409136568742e-03
      8.7446183810704209e-03 2.3877210463729669e-03
      5.8176286606718085e-04 -2.9465948868330131e-03
      8.6442954761997975e-04 -3.5303638619394047e-03
      -1.3510874108938872e-03 3.8871452223237205e-03
      -1.7298193328858338e-03 1.4373649793311598e-03
      8.1512057760353316e-04 4.2181237558047441e-04
      -8.4102751431407458e-03 2.8613038535231280e-03
      1.7554703608829297e-03 2.0376946249185107e-04
      -3.4085991494009092e-03 -5.6564194953050194e-03
      -1.2169722705858395e-03 1.1340679896242232e-03
      -2.3811994867475538e-03 5.3881821753752977e-03
      2.7789737686514421e-03 2.2680251881037378e-03
      5.6669207036974369e-03 2.2955207422613614e-03
      -1.5270655156404071e-03 1.0277832294347179e-04
      7.5411950492973326e-04 -2.3832140446268090e-03
      1.7709331596215555e-03 2.2205740483708307e-03
      1.6325262806499512e-03 6.4144796982323622e-04
      -3.0528918802053191e-04 1.9761177877174112e-03
      -1.5645106431925496e-03 -4.0776605686257080e-04
      -3.6742551634918880e-03 -1.7089972825823003e-03
      3.9773295306547076e-03 1.6351206181768057e-04
      -3.1028641609899300e-03 -8.7293129652493272e-04
      -3.0195489387108833e-03 1.5312254804020547e-03
      1.6147429281095831e-03 4.0985341615051765e-03
      -8.6764585405987166e-05 4.4192190943427891e-03
      3.9649752513918847e-03 2.1665000913308730e-03
      1.7178553075013004e-03 -2.2918274988574529e-03
      3.7203050326808793e-04 3.2424522082684618e-03
      -7.1840723509364898e-04 3.1256585276770148e-03
      3.9116759348306184e-04 -5.4419085134561791e-03
      -9.2428624257273921e-04 5.5849419713556816e-04
      6.9991592936265677e-04 -2.0423931384343521e-03
      -5.1200935597168224e-03 -6.8411264433669659e-04
      -3.9172867094527351e-03 1.0175941239524314e-04
      -6.4759219576046283e-03 -3.3244980688109612e-03
      5.9137650242655944e-03 3.5994165122439636e-03
      8.2829691383831117e-03 6.1434819939629876e-03
      -4.1393869592681789e-03 -5.6326573796982714e-04
      3.7495255689140453e-05 7.6139243654940614e-03
      5.7784045025041468e-03 4.3324939881969121e-03
      -9.1227421606381032e-03 -2.3917476305883420e-03
      -8.7549451887506432e-04 -1.7959691341128379e-03
      7.0488257849736910e-03 3.5031809213205672e-04
      7.7895398511488049e-03 -4.5700215651679242e-03
      -5.8171191772367972e-03 3.7044741213206520e-03
      -4.1177518615639177e-03 -7.0700470247068818e-03
      -1.4054073613673143e-03 -1.8555840824168142e-03
      -1.5994684567924597e-03 -4.9082715590110576e-03
      2.9075055633969332e-03 1.9392005481859819e-03
      2.5913646712151933e-03 4.8680056404870522e-04
      1.1609263385271892e-02 5.2197629508143936e-03
      2.1538815751642750e-03 -1.4991661103649330e-03
      8.8318606277223576e-04 -4.5773267839155432e-03
      -3.4997696998727585e-03 6.8977476853785231e-03
      -5.7167750079027283e-03 2.5623440744794975e-03
      4.1945903766743255e-04 -2.2908196387205373e-03
      -5.8003896158367336e-03 2.3678919872519404e-03
      3.1976067911952321e-03 3.3569308176819935e-03
      -2.9170394356807003e-05 -3.8694756638095748e-03
      -4.8812606653064802e-03 3.8201438264699392e-04
      -1.3389763894714403e-03 6.9461781866201533e-03
      2.6571314608050895e-03 7.5398717866099352e-03
      9.9533769435987355e-03 1.0425159075591142e-03
      -2.7569339014174576e-03 2.0902724912490289e-04
      -2.4523288273909781e-04 -6.4521701746806789e-03
      3.0465069247752733e-03 -1.3157264391733252e-03
      3.5586029255663108e-03 5.3486748819314778e-03
      -2.6640227467898741e-03 5.6598439662626553e-03
      -6.7094464127339095e-03 7.6086460654851583e-04
      7.1918622143473082e-04 7.6157037388147855e-04
      2.5522481147313364e-03 -6.5470765384231366e-04
      9.1132288397737763e-04 -6.6405992137418606e-03
      -2.9893812964538959e-03 7.8213714204400831e-04
      3.0285451713618237e-03 4.8568235072345501e-03
      -5.9777034503909698e-04 4.8511995310508054e-03
      4.4683240557391738e-03 8.8512763604302758e-04
      1.0460100864420471e-03 4.3757093216975065e-03
      1.9555658814488812e-03 1.0303626474255818e-03
      -4.1780715937921216e-03 -2.7898302076873423e-04
      1.2645047187469078e-03 -4.8363380196906362e-03
      -1.6045750684115204e-03 -3.1132691429615628e-03
      6.3659984173246374e-04 2.1515300123615437e-03
      1.1629391436448096e-03 -1.0713130735575517e-03
      -2.9864619507921054e-03 1.5363532445678162e-03
      -3.9622602235473850e-03 -2.1977594870770229e-03
      1.0039304130512975e-03 1.3268609480793385e-04
      2.6450831326956682e-03 -6.3311436726694846e-04
      -4.0327110000464456e-04 1.8239805336087427e-03
      -1.8461712424785320e-03 3.0931526039652472e-03
      4.0352738949606583e-03 -4.0660861659075912e-04
      -4.1545283247228070e-03 9.2170085771372612e-04
      -1.2436306457292996e-03 1.1333672843401473e-03
      -1.2803921351690689e-03 2.1404395655986413e-03
      1.6513478537995712e-03 -2.8671438771840072e-03
      -3.0837762637779412e-04 1.0297509860081994e-03
      -2.6160697818161278e-03 -3.5201099426301163e-03
      1.2624110629054518e-05 -2.2802224388329827e-03
      -1.5193894437493668e-03 1.5274395671802197e-04
      -8.9435576294472584e-04 -5.5528400763289190e-04
      2.0844816949973930e-03 1.8032562908324274e-03
      1.7752365488031008e-03 3.5351402806133143e-03
      1.3666369504037120e-03 -3.6971818216012780e-04
      8.2496710193248103e-04 -6.4814581561411675e-04
      -2.6596091043648085e-04 2.1157095677206013e-03
      -4.2824981952589773e-04 -2.3995813594208924e-03
      9.7781360225966262e-04 -1.3208409266357883e-03
      -9.4569739516319216e-05 3.3514302542225613e-03
      1.1845518225652972e-03 1.9086801191215324e-03
      1.8349216035256567e-03 -7.0163325448250181e-04
      -4.2079466060347334e-03 -3.7084919784292940e-04
      3.3024085495148114e-03 -2.0122737785275360e-03
      -5.3776692305734135e-04 1.8205159832180159e-03
      6.2296380713483231e-03 -6.9948226665446207e-05
      1.8950675120091079e-03 -1.2440300862591696e-03
      1.0580620375085425e-03 -4.8960406404299165e-04
      6.0225675990349312e-04 2.7482033185442263e-04
      1.9609431395915980e-03 -1.0719298125322551e-03
      4.9706740328243708e-04 4.0715337736746795e-04
      -4.4430506093489962e-03 2.4075491528314273e-03
      6.9357850621818112e-04 2.7356160358603600e-03
      -4.4061925413227567e-04 -1.0017786631071383e-03
      3.0757508598013720e-03 -1.2995398540435815e-03
      1.2868132842816759e-04 -1.3100182678867060e-04
      -3.5814896835048739e-04 -2.8524353415567390e-03
      -1.1160793219090065e-03 1.2269128424345194e-03
      -1.3489278118278491e-03 -7.5458528360698241e-04
      4.4580885685143517e-03 3.4614766102273697e-03
      1.3005002710747161e-03 -5.1582416862256070e-04
      -1.0355113150296851e-03 7.6727122753944587e-04
      2.4551052019099397e-03 -2.3818742444428778e-03
      2.7180293813902959e-03 -3.2903147470656315e-03
      2.1347360054977714e-03 6.6840031423945866e-04
      -4.2509837742884587e-03 -3.7029171637105029e-04
      -4.7087080077120166e-03 -1.8707142179109494e-03
      -2.1650612734314145e-03 6.2657910308357278e-03
      -1.8144822252438111e-03 -3.7381267480315959e-04
      9.8172055774958908e-04 6.2833233376932891e-04
      1.6493502038412288e-03 2.1157197581914513e-03
      4.5904832452759187e-03 -5.0660247392218425e-04
      5.8061000000947599e-03 3.2217785857005222e-03
      6.6928620551439790e-05 1.1800700198674201e-03
      1.4173097768285378e-03 -1.3482149006609644e-03
      4.2777996221480237e-03 -1.2986490103781127e-03
      -3.0394170129410146e-03 -1.0336351317150275e-04
      -5.2741365399141668e-03 6.1700834438674209e-03
      1.1216693339157031e-03 3.8144663293319444e-03
      3.5512577055576939e-04 1.5642390610702299e-03
      1.4563541774252297e-03 3.9101158288442133e-03
      9.8537898693145157e-04 -3.9760357752194964e-03
      -2.1973458032558614e-03 -3.2895174419534622e-03
      2.1021666192035681e-03 4.5568850051543449e-03
      -5.0575666127537691e-03 1.7832895927265599e-03
      -3.5483326496487510e-03 8.9148484104929662e-04
      4.1867375054975425e-03 -1.4514356435956536e-03
      -1.9833587407473287e-03 8.4729984396757837e-04
      4.5456896734682997e-03 -4.5771279501208573e-03
      -2.2692770780984532e-03 2.4939086139401387e-03
      2.2258150756285467e-03 1.6269052632892412e-03
      1.9333360113877804e-03 2.1247345434251821e-03
      -4.4480187056710760e-03 3.1383151103615177e-03
      2.0351105442858405e-03 -2.0366561409940341e-03
      -1.6912092017169823e-03 -1.9274902385841893e-03
      1.2363205318848491e-04 -2.3098517944699550e-03
      -4.1872328991249619e-03 2.8024336691985989e-03
      3.5607308978604068e-04 2.8731235693564301e-03
      -1.2096501796142237e-03 -2.0473779891968377e-03
      -2.2275237108984936e-03 -4.3115046296680953e-03
      -4.6139245570298269e-03 7.1696142409602131e-03
      -8.2413582895520801e-04 -1.1241695512258555e-03
      4.5284086501925667e-03 1.6685637654715636e-03
      2.9249404366219837e-05 -5.2956968205696408e-03
      -8.6590926601333776e-04 -9.4207837188818133e-04
      -1.4679913171836802e-03 2.9896214248789029e-03
      -4.9681444351187118e-03 2.0331120932935457e-03
      3.2159457072933775e-03 7.3348056434578452e-04
      6.4229844113821669e-04 -1.6708129709483408e-04
      3.4121852797115932e-03 -1.4227608387806668e-03
      1.4586121645234109e-03 3.0470822189792362e-03
      -3.0141905970956853e-03 5.1053755634984646e-03
      -5.8575938121722038e-04 3.7504460539049033e-03
      -2.3497895627206575e-03 -3.2494044927568696e-03
      -2.8244911460102592e-03 9.3550740708831556e-04
      1.0516421924503785e-03 -2.7093212290098100e-03
      -2.2709697744404999e-03 -9.1095294241275106e-04
      1.8217781795665383e-03 -1.8459960542751384e-04
      2.9348189419299976e-04 -3.0102249415752333e-03
      5.1163221114707621e-04 -1.8947493278220885e-03
      -6.1882884794865940e-04 1.8682521727971454e-04
      -1.8722282291450479e-03 -1.9057551904005541e-03
      1.8586700930963524e-03 8.9504645519349448e-04
      -4.2441118356935838e-03 -3.0144007551223408e-05
      -3.4452898694446949e-04 6.3560834471266799e-04
      3.4816406127774436e-03 -3.8858988143636603e-03
      3.1745490826558310e-03 1.0668164502359669e-03
      3.6761647779536694e-03 2.5015135358545946e-03
      4.2963116698090066e-03 -1.5235578737629648e-03
      1.5038448851807857e-03 -3.7382507552819037e-03
      1.3710468315067898e-03 4.2617529484614480e-03
      1.3334396058410395e-03 -9.1671578150990401e-04
      -2.9461587445244997e-03 3.7540814394380960e-04
      -2.7171638331545548e-03 2.9762946805628114e-03
      -4.0280016956010107e-04 1.9486991014855005e-03
      -1.2807039436697347e-04 3.1833826041262488e-04
      1.7914933356702296e-03 -2.4239375639208021e-03
      1.7073001347045822e-04 1.2771029355472793e-04
      3.7164718653980335e-03 3.5110372583253579e-03
      -2.1422000027967444e-04 1.1892509170517325e-03
      -2.2224612898029696e-03 3.7467678542421243e-03
      6.8148368826828837e-04 4.0171813689814408e-03
      -3.5831661326048182e-03 6.9919420597775123e-04
      6.9889701065412133e-04 -2.2379607433737187e-03
      -5.1649204307786002e-03 2.2479284208363386e-03
      3.0354789377610757e-03 -1.5209594770500146e-03
      2.8834053186741278e-03 1.8787813818848542e-03
      -3.6088995717576761e-05 -2.9173544906782212e-03
      1.8078006901131691e-03 1.6891508012867452e-03
      -4.8021964035049628e-03 -9.5968972564691257e-04
      -2.5402962726748662e-03 2.1775082940122129e-03
      -2.0273880178990154e-03 -5.2050235640162105e-04
      2.0504576945985036e-03 -1.3042344571701405e-03
      -6.8201746959470138e-04 -1.1904565842704956e-03
      6.8692547035710560e-04 5.3841918843995206e-04
      1.7322244565852109e-03 1.0893475582492203e-03
      -2.6847123061784412e-03 2.4773663405522778e-04
      3.2736011716956491e-03 -7.9998591178721281e-05
      -1.8858094428354901e-03 -2.5773361646989749e-03
      3.7703845342458987e-03 1.6107101078514902e-04
      -2.7300774105504537e-04 -1.2885242016308506e-04
      -7.2340593307137048e-04 2.6662403575894501e-03
      -1.4816410978960711e-03 1.0097039111422034e-03
      -4.6324866274169083e-04 3.8904439921874276e-04
      -2.7127860956864368e-04 1.2729518365145436e-03
      8.0002015470122083e-04 -1.8125014665025512e-03
      -2.4392316402041532e-03 -2.8389246770023284e-03
      -5.9951844920362925e-03 2.8692837429835846e-05
      4.2347026170396580e-03 -1.5894047222489542e-03
      7.6716570370313122e-03 3.4775945384724898e-03
      -1.0633926721189755e-03 1.1876714506175857e-03
      5.7892311618853954e-04 3.9533120377567314e-03
      6.2460911449718302e-03 3.5821196976331191e-04
      -5.5314138023168993e-03 3.4926832183022357e-04
      1.5323523671278299e-03 -6.8588998712430500e-04
      2.9780590089227253e-03 3.4132103105220962e-03
      8.3928535809239639e-03 -1.0014513436878436e-03
      -2.3662181797917117e-03 -3.8980239198635680e-05
      -2.2704990606140889e-03 -6.1526861985616594e-03
      5.2385431921849000e-03 -2.0565063744799337e-03
      -1.4708895041358769e-03 1.5955519983538506e-04
      2.2747476309605648e-03 2.2905798402684798e-03
      3.1202992765369201e-03 -1.4396675688246501e-03
      7.1389760154721999e-03 4.0809451409938267e-03
      7.7922718196543175e-05 6.1376796586349040e-04
      3.2218901445834999e-03 -3.2450573236942159e-03
      3.3102257773050424e-03 4.4031504227348729e-03
      -3.6049439958442740e-03 -7.0887747638233279e-04
      2.7170445451109916e-03 -3.3112948044097114e-03
      -4.5603202487360436e-03 8.8344424188084212e-04
      6.7392842227033019e-03 6.0524566479006206e-03
      7.5046722743194025e-04 3.5575794360615826e-03
      -5.3203987886205253e-03 -9.1096922059596302e-04
      1.8801504717425290e-04 1.8246379592727034e-03
      -9.3736171430359517e-04 2.7655878528954647e-03
      5.4255992924945517e-03 -3.4516123007427234e-03
      -2.4849500030769455e-03 2.9770405484149782e-03
      -2.0582643734417664e-03 -2.7179270248835078e-03
      -8.6512703859901411e-04 -2.8386315051186204e-03
      -1.7519373173605429e-03 6.2100360975453368e-03
      -3.0987872468652027e-03 5.0932110391537933e-03
      -4.2877131006949579e-03 5.4816581756338750e-03
      1.4646808006021556e-03 -2.5597892374397855e-03
      1.6774049868525443e-03 9.6509105254918132e-04
      2.6207848221530333e-03 -1.0462472934125947e-03
      -5.4882602807343021e-03 3.7095083634952679e-04
      1.2382245751519805e-03 -2.3064320830395750e-03
      -3.1547453405864789e-04 4.7030522780243007e-03
      2.7269311788493691e-04 -4.1660577974220797e-03
      3.8138875617382147e-03 6.3893523875172310e-03
      2.5789105415143180e-03 2.3936602990124395e-03
      -1.7337813526562638e-03 9.6918547098296033e-04
      -1.6020311363014431e-03 -2.3472284193765541e-03
      3.5927834075413774e-03 -1.6850631196058104e-03
      -4.9686288397812525e-03 -6.0494429041180176e-04
      3.4334340975979965e-03 -2.6829373163197705e-03
      -1.3434952829187604e-03 6.0339540591675470e-04
      -7.5199411205492596e-04 6.2491062984210187e-03
      5.8890684450618638e-06 1.4782580342070761e-03
      8.0851791610238484e-04 -2.2747495922689764e-03
      4.9134068536930533e-03 3.1218511536720302e-04
      -3.4584331301205098e-03 -4.5690453465090103e-04
      6.5029018462609556e-03 -1.0433566832793110e-03
      2.3281839376517077e-03 -2.3064196399849896e-03
      3.6725627091878641e-03 -6.8228879091406327e-04
      2.4848111580279744e-03 2.9045211586133726e-03
      -2.8339084441595199e-03 4.0601383391651305e-03
      -4.9575480040934226e-03 1.4713462998381846e-03
      1.7544181476458992e-04 -1.0266460950478903e-03
      4.2043788196387457e-03 -3.3238919295841681e-04
      3.2999417748688811e-03 1.2101701080006523e-03
      -2.6885371122378657e-03 2.0836985250420564e-03
      5.7307783123736113e-04 -3.2460924953005127e-03
      1.5722038347068701e-03 3.6437984852070583e-03
      1.9364823103408214e-03 1.3376726108809960e-03
      -7.3245327150330160e-04 8.4580215868100897e-04
      1.2312772619517468e-03 4.1817238228704975e-03
      -2.6562172628373081e-03 -1.6430784366292979e-03
      6.4174193492752647e-03 -4.9526280745105901e-03
      -5.9296727225166511e-03 5.5238230526252481e-04
      1.8549651282578801e-03 4.1265065781714303e-03
      -1.1133394902442485e-03 -9.2135157750517687e-04
      -1.6543581606184351e-03 4.0801844710251726e-03
      5.4021326443697470e-04 2.5356351991759189e-03
      -5.5899986536358560e-05 -1.4363551830853648e-03
      1.3880659839351330e-03 -3.3642343844189032e-03
      1.8874059689738740e-03 3.1322592877742693e-03
      -7.8672984338215438e-04 -1.1005333597553751e-03
      -5.4406027446167642e-03 4.2475485531074888e-04
      -2.4750571007932493e-03 -2.4752901551649111e-03
      -1.7867033013875162e-03 7.3439004946870964e-03
      -2.4013978853437913e-03 -1.1817028496732972e-03
      -9.1615684615402055e-04 4.7248460896645193e-04
      3.9845602709723512e-03 1.5210154240973435e-03
      1.6228004788895005e-03 4.1146382346080052e-03
      2.1552325549458705e-06 -1.0372398779347662e-03
      -8.1792087851883331e-03 1.3119549314458126e-03
      -1.9012831293343236e-04 3.3325306745689985e-03
      1.0559528475419755e-04 -2.1658390302071472e-03
      4.3338249268839802e-03 1.7369217104569212e-03
      1.2837450839878548e-03 4.4080735107950870e-03
      1.3408563129254497e-03 5.6480584130457366e-03
      2.5459340044039843e-03 2.6397145213050877e-03
      6.5806891635914423e-03 4.0227199757674019e-03
      -3.6782911887970273e-03 -2.8293853569103032e-03
      2.6840019373757969e-03 1.4683111669528794e-03
      -3.7781504674235483e-03 3.3634294717190790e-03
      -3.2504418008499573e-03 8.6555250284142699e-03
      5.8194806371343671e-03 5.6479307741962468e-03
      6.3838136169253965e-03 2.6849425449467787e-03
      2.1486212427420503e-03 -9.3703771500760272e-03
      3.7991897324445730e-03 7.1863236869062841e-03
      2.5154539763436044e-03 9.7101506064544937e-04
      2.2294581635060179e-03 -7.0308397160336955e-03
      2.3894998871084338e-03 -3.4069000185524504e-03
      -2.4876286830834995e-03 8.3635526133414243e-03
      -1.9328489700457662e-03 1.3146943771874054e-04
      -8.5615781024207683e-03 1.1691658275688088e-03
      -5.1160228718167833e-03 -1.3764823282215600e-03
      3.9500492392990916e-03 2.7870562726330633e-03
      -4.5516332743590548e-03 -3.2216539914487691e-03
      -3.6348216503197315e-03 3.1824279793563593e-03
      2.4010833647810158e-03 -2.0253799594088981e-03
      3.9251227943901479e-03 2.5523060560264238e-03
      6.9780772980078563e-03 -1.9332077301453300e-03
      4.6063068906211828e-03 1.0592470402003256e-03
      5.0815156217998867e-03 5.5857718779547113e-03
      -6.8265233843400051e-04 1.8726520764426313e-03
      1.1985056053133518e-03 -9.0572767414420479e-03
      -4.8119260020270992e-03 7.2760865865595641e-04
      5.6137288836353282e-03 -2.0885883485806185e-03
      1.9279716744683992e-03 -3.2964167624409740e-03
      -2.6942285025761841e-03 5.3402151310807449e-03
      -4.3660750591954650e-03 2.2633334113848769e-03
      7.5046447260513297e-03 -5.6162447069122261e-03
      9.8908696131139850e-03 -3.1101986079121436e-03
      8.2958553561489074e-04 3.8963758679056852e-04
      6.5728835637865772e-03 3.5611981806122342e-03
      -3.2063628567065225e-03 3.1514744791938365e-03
      7.3251375457208485e-03 -4.8750962483305293e-04
      1.9563040931887513e-03 4.5889330738821208e-03
      9.6449013592508404e-04 -2.2359879146882059e-03
      -3.0655359395262032e-03 3.6567261262272187e-03
      -1.6224841316512873e-03 -4.4595724947892957e-03
      2.0463381756733868e-03 -5.1808753485336045e-03
      -4.6707960999199296e-03 1.5461001307541494e-03
      -5.3729840796929154e-03 3.3804725734467413e-03
      2.4514436170048736e-03 3.4704959150770819e-03
      9.1939770069434969e-03 3.7000223546096471e-03
      4.4097221076268688e-03 -5.7852095757190180e-03
      1.2794638611344645e-03 3.9364913344975940e-03
      -1.1235591530830401e-03 7.0479355642968618e-03
      -1.1944149049268769e-03 -3.9251118468423976e-03
      1.9244170619607469e-04 1.2059472887380699e-03
      -1.4326038581437552e-03 2.8618810084259450e-03
      5.5922990186645343e-04 -1.8005917079299224e-03
      -7.0435774474180216e-03 -8.0301073455441886e-04
      -5.6901941810248331e-03 3.2878851297366471e-03
      4.0964475426000929e-03 3.7818407813883003e-03
      9.3056552560428565e-03 3.0019953703927581e-03
      -1.6205260099518583e-03 3.0287392621566162e-03
      1.0315568079722003e-03 9.4266914878791200e-03
      7.9251203029553768e-03 1.8410205287197300e-03
      -8.7046624358787638e-03 -2.2336615538364937e-03
      2.1449025447236648e-04 1.8935828386885830e-03
      7.5390483982841821e-03 1.5866694123020813e-03
      5.7404094190304641e-03 -1.1122317438687272e-03
      -3.5688780245095243e-03 5.4546861987941116e-03
      -4.0680889890105610e-03 -6.7111784107913991e-03
      3.5948838632495501e-03 -3.2941006952997413e-03
      1.3477810640981779e-03 -2.7013919496283716e-03
      -1.8846054601967723e-03 1.3960144528984732e-03
      -8.1424420717431600e-04 -7.7553656212017675e-04
      1.3121864453803932e-02 6.3482310327697914e-03
      -8.3877144401335927e-04 1.1094329680362521e-03
      -5.1304743308968812e-04 -3.5448953963990752e-03
      4.1488754094823425e-04 4.7308381805336499e-03
      -3.0806064549023702e-03 2.0340695445512733e-03
      5.8452041915224720e-03 -6.5192549898095324e-03
      -4.5898542641584225e-03 8.4125328521677493e-04
      6.1902618131347582e-03 6.4803529060316022e-03
      2.8835374830318201e-03 3.7462439345752351e-03
      -5.7432437578212236e-03 9.2306393302351143e-04
      1.3383030880717130e-03 4.3975812795512808e-03
      -2.3226049208961393e-04 9.5829906575793872e-04
      1.2615413727991890e-02 -1.0712387092239900e-03
      -2.9199095862326068e-03 3.1199793483187993e-03
      1.4282344704331577e-03 -5.9805084514820868e-03
      -1.8796748234933777e-03 -1.0434839598616366e-03
      -3.4177524573127609e-04 3.7367984736588634e-03
      -6.0338371898532228e-03 1.1250904572147136e-02
      -7.3837610405638066e-03 3.3019037825727949e-03
      1.5847971179996905e-03 1.0802390336126122e-03
      6.5406378946570301e-03 -5.4266448428717784e-04
      2.2299104017306556e-03 -2.6955281675407226e-03
      -3.9338856955718152e-03 3.2200678957649484e-03
      -2.9524086215302219e-03 3.2705171907245327e-03
      -3.3156802709899359e-04 5.2363470855956292e-03
      5.8074893176530131e-03 -3.5301023644627688e-03
      5.3206060020340928e-03 7.5433628792364229e-03
      1.5562510720869890e-03 5.2104463995111885e-03
      -6.8893418820673681e-03 3.8850241996579897e-03
      -7.6740339485430360e-04 1.2564876547667767e-03
      1.5062421505966858e-03 -1.5030013291359927e-03
      -2.8316497123217006e-03 -7.6738356360176864e-05
      2.4474133235636080e-03 -5.6063889341899358e-03
      -3.6653639419055415e-03 -2.4649083863504404e-03
      -1.6603855658851871e-03 9.6839648424123712e-04
      2.8969645823888122e-03 -5.1543683171936556e-04
      6.1910446277233331e-03 2.0461998162874815e-03
      8.9160493435931903e-04 1.3181192998250958e-04
      -1.5381471705558096e-03 4.5888029863320016e-03
      2.8738850744986296e-03 -1.8865846957050614e-03
      -6.3717841729783809e-03 -3.1821900750994042e-03
      -1.0182347948518935e-03 2.7234280648215474e-03
      1.0008946832684271e-03 9.1976119900192058e-04
      6.4846880881840058e-03 -5.1566112224286746e-04
      -2.9939336952911583e-03 -1.6680833098376587e-03
      -1.0294307566257213e-03 -3.2879044891443335e-03
      4.3970142939297290e-03 -1.9869435629898836e-03
      1.2895466158676845e-03 -6.6343751171975924e-04
      1.2334251471448369e-03 3.1222464037122402e-03
      1.3605658498058390e-03 -1.9101530979043311e-03
      4.2145084697471627e-03 5.5530461891612542e-03
      1.6903864876523192e-03 -1.8268208498495022e-03
      1.2471674990876050e-03 -4.4349359096960686e-03
      9.8184008037933805e-04 6.9044467330369149e-03
      -7.8719915717425282e-04 -3.2623583610670247e-03
      4.9217575038665810e-03 -4.1916964620583244e-04
      -1.9298237316449211e-03 1.5496711612134986e-03
      4.9597988930589875e-03 1.9694195090604024e-03
      -2.6824752542478868e-03 3.8376545414002218e-03
      -2.9855542423649446e-03 4.7027640254248505e-03
      -7.8742500426442748e-04 1.9249078976358793e-03
      -1.9642204024967335e-03 4.3885590533019967e-03
      6.5082909201636154e-03 -2.4404533637813981e-04
      9.6893671334056239e-04 1.1240401285249363e-03
      -2.7773149514251200e-03 -2.1188319771997563e-03
      -5.5008127036646967e-04 1.4537520599963991e-03
      -2.7013292343004542e-03 2.2659508292087929e-03
      -6.2775511848787678e-03 2.7630315985386323e-03
      -6.7867830663650716e-03 1.7730449951103102e-03
      -1.5219515584538254e-03 1.0332439530409232e-03
      3.3051954049734987e-03 6.3808304588504924e-04
      -5.9420220450443276e-04 3.7395367303862988e-04
      -3.5016353019606578e-03 -2.6970065982728997e-04
      -3.1772134371498882e-03 1.4921063742379044e-05
      1.3381241865687906e-03 2.9012148685937434e-03
      1.5697729802045157e-03 -7.3063589546644935e-04
      2.5315939458138486e-03 2.0169241301510412e-03
      2.1265252627757645e-03 2.1842327457463425e-04
      -6.2745357034569161e-04 -2.1550772873458208e-03
      2.0845638170867010e-03 1.5307817315535952e-03
      -4.1812756280664738e-03 1.5759567096947124e-03
      2.6278462766992782e-03 1.3642082068896209e-03
      1.1881057338502072e-03 -5.0175003766791612e-04
      -2.5106256436721666e-03 -2.4602445968901726e-03
      -1.0172029290468083e-03 -1.8426413574387265e-03
      8.5919466200432427e-04 2.0821027940454498e-03
      1.8193451611374914e-03 2.3823393213182552e-03
      -1.4055819472119529e-03 3.2494918080512233e-03
      3.3505054328957658e-03 1.5584579877830473e-03
      1.4421423277580228e-03 1.1083790982852463e-03
      -2.2253238873858935e-03 1.4117702511843237e-03
      7.2369121220952344e-04 3.4266851732012399e-03
      1.5817594064457559e-04 -2.4935026895895242e-03
      6.6095172671737530e-04 1.5984779212628809e-03
      2.3979928157373234e-03 3.2353414498808011e-03
      -5.6479708942948890e-04 -4.3080810044725717e-03
      1.5132741245268569e-03 -4.5809094031284682e-04
      -2.2269397879996558e-03 -1.4393162838516789e-03
      2.6954868204566627e-03 8.2169234576553093e-05
      7.4871673015223063e-04 2.4547059742339121e-04
      1.9559753121082286e-03 -6.3756152764490003e-04
      -1.6650288795120502e-03 1.5124201446413065e-03
      2.4202399572269915e-03 -1.0891311269705729e-03
      -6.0417487388001466e-05 2.4253929574043149e-03
      -1.3309456861321892e-04 4.0070979538809927e-03
      -1.6228214996749347e-03 -7.2020458013874933e-04
      2.4041981636662314e-03 2.1733426087434810e-03
      8.1360426305778573e-04 8.4166044404968389e-04
      1.3075871957109447e-03 9.5901721239798142e-04
      -2.1146709307602677e-04 -1.3435434342658134e-03
      1.0376735312912077e-03 2.9418861047529393e-03
      -9.1033191346059678e-04 3.2909519225178836e-03
      1.9435854017025721e-03 4.3779107892349359e-04
      -2.6240647923521398e-03 2.7247580840021835e-03
      1.5734397414191470e-03 -5.8675241222133601e-04
      -1.2027795710719665e-04 -2.9522660489328307e-03
      9.8813516208177705e-04 4.1754459413202993e-03
      6.0983874492540632e-04 1.2883075764304121e-03
      -8.9875704962875133e-04 4.8127052241784957e-03
      1.1514819755811001e-03 1.9305643339769253e-04
      8.4555558387969395e-04 -3.0057687954192190e-03
      1.0806758686801009e-03 -3.7490370258162460e-03
      -2.3123011685392174e-03 -9.3048569508734412e-04
      2.6037550689172431e-03 -2.7339386525386555e-03
      1.0983389431809666e-03 1.5248370999966408e-03
      1.5239348234716774e-03 1.5139473694473500e-03
      -1.7273531834622621e-03 -1.2358103534771599e-04
      1.1403018623510550e-03 -4.9672735769126406e-04
      -4.4462711590532627e-03 2.3335172460511870e-03
      -1.2789841217227173e-03 3.8118001962291620e-04
      -4.3093644519754332e-03 -1.0471965649810201e-03
      -2.8950663183260890e-03 8.0365867524346893e-03
      7.8928284972486148e-03 -4.8053675546647096e-03
      -4.7793236122396494e-04 -3.8368813375222258e-03
      -3.4840436933327576e-03 1.2647556608608448e-03
      8.0435068518963269e-04 -3.0777689668953544e-03
      4.2172091967170163e-03 -1.1383013557930428e-03
      -3.7712354645521918e-03 1.7557957748916541e-04
      -2.8574333227337650e-03 -5.6737569467435484e-03
      -1.8202935175712447e-03 -1.9301893541027494e-03
      -5.0269636705410907e-04 -4.3771524625921144e-03
      -2.6601902042440208e-03 6.1688699757028341e-03
      7.1704241095244133e-04 -2.6079333763636180e-03
      1.7680599539746378e-03 2.5276772961523625e-03
      1.4107959091829274e-03 -2.8940210789857607e-03
      9.2200180843345688e-04 3.2199866198941428e-04
      6.6503162672524943e-03 -7.8103937056824887e-03
      7.5146477261954121e-03 3.9981337524312060e-03
      1.3231407305728600e-03 1.9652487689907415e-03
      2.2850193990649323e-03 1.4252874479518279e-03
      2.9837108964804065e-03 5.4687066320262042e-03
      2.3613486403652787e-03 4.8549768116538086e-05
      -4.0090948429664187e-04 4.5178705910585209e-03
      -2.0624623907493454e-03 -1.3874651311965493e-03
      -8.0801477977628690e-03 -5.2548926268413476e-03
      3.5831995892912738e-03 -3.5017532471179214e-03
      1.7090708537044665e-03 -4.7110203427543795e-04
      3.5872899682627339e-03 2.5019609212570131e-03
      -1.3787519336567098e-03 -7.7141934044343394e-04
      -1.5995368195039711e-03 2.6101726603881326e-03
      2.5613277586339451e-03 1.8880307077812533e-04
      -4.6958124456354658e-03 -1.4152343223632290e-03
      2.6900718536505314e-03 2.0099642613183218e-04
      8.5179723449296876e-03 7.5837045635250078e-04
      -2.2544010961207143e-03 -4.6291840888018120e-03
      1.9265867140858910e-06 3.3732980387489080e-03
      -4.8196235478996123e-03 -3.8404269260672473e-03
      -3.6508702033495599e-03 2.0056941588257743e-03
      -2.6587181506597386e-03 4.2842600663632862e-03
      4.0249902371654724e-04 1.7234594294075417e-03
      3.8331132629056486e-03 1.9307837420729861e-03
      -7.8001091675002228e-04 2.1149323161857702e-03
      1.8910318941591992e-03 9.8837433024689866e-06
      -1.8735128859532460e-03 -4.5212212979751391e-03
      6.1919344922668771e-03 2.4472690623891643e-03
      -5.1721578276775360e-03 -3.1734882775743601e-03
      2.4366409992219967e-03 2.9683612547533132e-03
      -2.4198207018737895e-04 -2.5610475016594565e-03
      1.1795344532651679e-05 4.7591876079929162e-03
      3.8966782831967904e-03 4.7702424710399137e-03
      -3.6543906254257108e-03 7.9128047934094823e-04
      -5.6349935175179344e-03 3.0788009749950895e-03
      2.0184263477333601e-03 -3.0068649757862124e-03
      -3.1985030973755240e-03 -5.1478619317263724e-03
      -1.5526943746136416e-03 1.1973486370526448e-04
      2.0775171389821280e-03 -2.5296130668138708e-03
      2.0447307000126523e-03 4.6738642878216952e-04
      1.7974650734377787e-03 5.0099992472841196e-03
      1.5340029347909693e-03 -5.9434336908745873e-03
      1.3800062887340350e-03 -1.9589862820081176e-03
      2.4381762199794521e-04 1.6558707058006313e-03
      2.4377218653625558e-03 5.8087869171305978e-03
      1.7209926766028128e-03 -4.5251954134077404e-03
      7.1635373419519398e-04 -8.5061343432399979e-04
      2.2985407619719707e-03 2.3708027138998099e-03
      3.8771287647969485e-03 -1.4188597066273822e-03
      3.6343106277381878e-03 -4.7383669167191970e-03
      1.6117510660421885e-03 8.2052201009212723e-03
      2.2755522694693740e-03 -2.5226189171988645e-03
      -2.5003933916404285e-03 1.7877232839988507e-03
      5.6215771404506513e-04 7.0198256323395830e-03
      2.2970120878721741e-03 2.6791095559865210e-03
      6.0084397874998361e-04 1.8900731033046994e-03
      1.7030244337172219e-03 -1.8622416553823718e-03
      -6.9338475519650439e-03 -4.7170208776165894e-03
      6.3808766543254763e-03 -8.1504226579815766e-04
      5.0290517800415995e-03 1.3770336932748435e-04
      -4.5071109712026448e-04 3.0615781327239614e-04
      1.0191478441848503e-03 8.0906473181543997e-05
      -7.6917541101879892e-03 2.4133635948815494e-03
      4.6676544802656634e-03 -2.3457233051063461e-03
      -4.1557467212226902e-03 -4.0270766740384822e-03
      1.2099115950637701e-03 -4.0421781637996618e-03
      1.4131799605493298e-03 1.0584846671660060e-03
      4.3795073024837923e-04 -2.0955386410642682e-03
      -2.0974178305786162e-03 1.9983199063380677e-03
      -4.6306205856440847e-03 -1.4417917641296829e-03
      -2.8061796686581330e-03 9.9306168593569621e-04
      -3.5294013842857861e-03 4.2981676327939946e-03
      2.4909242368804886e-03 3.2403229549262422e-03
      -1.4413778373480101e-03 -3.5718690419009379e-04
      5.1924096954455469e-04 5.8539275876755411e-03
      2.3737300132267930e-03 9.6543979381454330e-04
      -4.0852424170191807e-03 -3.9937627029865948e-03
      1.7618204657458654e-03 -2.6592934531660473e-03
      -5.1075341871473978e-03 -4.7961228601267449e-03
      3.4956634704889338e-03 3.7099625352526853e-03
      -1.7145526234727743e-03 2.1717379943727590e-03
      -1.0724234259763654e-03 6.1273889341493604e-03
      5.4725376455082970e-04 8.4391855777556004e-03
      -5.2153912233781166e-04 -8.8853214355288170e-05
      2.2249108271075509e-03 1.6602086435918094e-03
      -3.1823498912530428e-03 5.8236910688792025e-03
      2.7895532801839695e-03 8.5864347186379985e-03
      4.9138923495557528e-03 -1.6511226728475868e-03
      1.8115186753094141e-03 -2.5925902723234478e-06
      -5.8021253794593424e-03 6.0410904702987763e-03
      -3.1588802864059009e-03 -6.8650282670180921e-03
      7.7275412915375000e-03 1.7498686167356709e-03
      -4.2375875104978325e-03 -3.5711142506405363e-03
      2.1931512466083773e-03 3.9510474697021297e-03
      -7.6510029359397357e-04 -1.1312436903342178e-03
      -5.9384574558258756e-03 8.8377615467965676e-03
      3.6780489843145129e-03 2.5229649916760507e-03
      2.5723332285386698e-03 -3.1670730258021250e-03
      -5.6407355697155074e-03 -6.8840393534349274e-04
      5.8914304531412784e-03 -6.1900747003390392e-05
      -4.9993940070534862e-03 -9.0417474365272355e-03
      5.0751726320688324e-03 3.9808888439751529e-03
      9.9115145100686693e-03 -5.4004638395603393e-04
      -2.0431913684763763e-03 -1.6248662365689597e-02
      6.5906355372934702e-03 5.0820440364729392e-03
      -2.1101974855994737e-03 -6.7797504031177685e-04
      2.6451656487991807e-03 -2.3737759625703909e-03
      -2.2406843916002238e-03 -1.2595618782599417e-03
      -8.9354492521622926e-03 -4.3951287155374850e-03
      2.0094034539059787e-03 2.3415808168142727e-03
      5.9158821604683842e-03 2.3018130902617250e-03
      2.0339260893696256e-03 -3.3502193672862697e-03
      5.7996049928959997e-03 -8.5890496748906031e-03
      -5.1450124612750902e-03 4.1713231130522015e-03
      4.4650799426997293e-03 1.9526158857610350e-03
      -6.1197606443075233e-03 -3.2228227302797097e-03
      -3.0925798905884305e-03 -4.5518818998957862e-03
      6.3497516186138418e-04 7.1873391517722051e-03
      -5.1665925768416242e-03 -2.6507697894947390e-03
      9.0795893591928151e-03 3.7564104542334195e-03
      1.1201478106555775e-02 -4.1137137483013607e-03
      5.6729720217667760e-03 3.7815416587785745e-03
      -4.5682046889790511e-03 3.7532391952091672e-03
      -3.7133451534519619e-03 3.6764293268752460e-04
      6.1067044383546871e-04 -9.3370010096327869e-03
      -4.1025251454126620e-03 -1.3260135308937104e-04
      1.0536498743504734e-02 -5.3668073053247272e-04
      8.7387749170871965e-04 4.7282601083454244e-03
      3.3270319901323431e-03 3.1299967340512828e-03
      -3.8162460208937231e-03 -3.6504501541447863e-03
      3.7173963239192117e-03 -2.4073295097683011e-03
      -7.6742393270193580e-04 -5.0484825973935660e-03
      -2.9707454888787735e-04 -9.2169917076028712e-03
      -2.6833061741882449e-03 2.8863570334083526e-04
      5.1172357797947821e-03 2.2617123100882588e-03
      5.4758630134087811e-04 5.8432690229815853e-03
      2.2333894150986132e-03 7.6922644563358249e-03
      1.2389302703901966e-03 -3.1296817935172910e-03
      -2.1737522889030414e-03 5.3931582356642259e-04
      -2.9177394287219225e-03 2.5080144989354656e-05
      -2.5974469188248086e-03 -3.9733031409541148e-03
      4.9223509273157301e-03 3.5778365748923894e-03
      -2.6879865027215942e-03 1.7233122022400269e-03
      -7.1684964539438299e-04 2.4520671896133910e-03
      1.2168756195661578e-03 3.0518515909047866e-04
      -2.4553739805518843e-03 4.7272518287382476e-04
      7.9970776352796268e-05 1.5152174887489919e-03
      5.1466348629741442e-03 -2.5948258424071300e-03
      -4.1742034719161030e-03 1.3424787675566647e-03
      3.2672023360705800e-05 1.3554788327941349e-03
      -4.4885947277840703e-03 -9.0375420750874718e-03
      4.1162870945828369e-03 -2.2778059478154953e-03
      3.9961952577467928e-03 1.4106503664588913e-03
      -4.4406504639609174e-03 -6.7581970683513459e-03
      -1.7775560585743283e-03 -8.9730227330327519e-04
      3.6125007161937469e-03 -1.3533537355385292e-03
      -4.6118763040552783e-03 -3.7851127691889684e-03
      2.8800957411404459e-03 4.0539262872816926e-03
      -8.2815023568521828e-03 5.8753353685122504e-04
      2.9054099362927446e-03 -1.5423444282293135e-03
      9.8247033090802021e-04 -1.0430980664998654e-03
      -4.1520176766105595e-04 -7.0222436009517424e-03
      5.6837723246712596e-03 -3.4573682501384839e-03
      -2.7824201022165723e-03 4.1726151088680745e-03
      3.0022416419832336e-03 2.9903527320037210e-03
      -7.0773065627883934e-03 3.7074612657725420e-03
      -2.7961887222445435e-03 -1.3809674595248664e-03
      2.8800652817109799e-03 2.7429682769690910e-03
      1.8979055107635294e-04 -1.9056775479120579e-03
      5.6886583482884997e-03 2.7263764832167298e-04
      5.5420768195948138e-03 -4.1307968249826490e-03
      5.2673928944959141e-03 -5.2300259509291131e-04
      -2.2668527236947898e-04 -1.2449099188471121e-03
      3.3762981199689261e-03 -1.5137062199173659e-03
      3.2500787112713531e-04 -4.1250235415105779e-03
      -4.3487635998438520e-03 -1.5891238475900463e-03
      8.4095505376212184e-03 1.2938253771734326e-03
      -1.7984164602456690e-03 3.6089806667101839e-03
      3.2301150582054626e-03 3.1025333622958415e-03
      -3.6348453778579310e-03 -3.1995057455562982e-03
      2.4601506241077073e-03 -4.7083015894385160e-03
      -1.2798770883278240e-03 -1.5691080400265889e-03
      -8.0650289687735196e-04 -8.0194769588826254e-03
      -3.3370143476198267e-03 -3.0709216713827024e-03
      4.1590076907706830e-03 -2.4923388853178561e-03
      -2.9145317380340212e-03 5.7154632269424757e-03
      5.5319200643580840e-03 9.1575200042231710e-03
      2.0860398424105827e-03 -4.2537498276553551e-03
      -6.1659210934745566e-03 2.9907100299116952e-03
      -9.1521908605361225e-03 -2.2817496686393947e-03
      -2.9971987700486494e-03 -5.5703067210977593e-03
      -1.4141643499597804e-03 -2.8900412389438438e-03
      -9.8589611485137355e-03 -1.9309015262300663e-03
      -3.0335809967741690e-03 1.8254798701691438e-03
      1.0272571353709984e-03 3.3785689987032162e-03
      -3.9193163779132831e-03 2.5778580683439582e-03
      3.3639827968441395e-03 2.2385496875146271e-03
      6.1476308496041573e-03 -7.0727192587547770e-03
      1.5902815045748537e-03 7.3856255316330924e-03
      -9.8280642753522046e-04 2.8350484081344335e-03
      6.3162099600510646e-06 -9.2992991623169503e-03
      3.3265240908261270e-03 2.5809696809919241e-03
      6.5626753327234959e-03 -1.9109399427545460e-03
      -9.6344257358033734e-03 -1.4429707141854599e-02
      -5.3815159359168804e-05 -7.0874403841417698e-04
      -3.1906882354018518e-03 9.2848916832027732e-04
      -9.6431562447708071e-04 -4.1383188796214436e-03
      1.2361114360934758e-03 7.9690807658061070e-04
      -6.0824890115020198e-03 5.5976689246426932e-03
      1.0810518986893523e-03 -2.6232697507002785e-03
      2.2010088137926574e-03 -4.8401787677129588e-03
      -1.5163514716167079e-03 -5.3224972395709167e-03
      8.2879873589454464e-03 -1.6843253001055526e-03
      -6.8043076891474942e-03 -4.2662070243532454e-04
      1.9611693245835623e-03 5.0828813538767127e-03
      -9.6486931282024953e-03 2.1606405215532972e-03
      2.1111361738865124e-03 -5.0474292705639627e-03
      1.2641140186295046e-03 4.6410738575147839e-03
      -1.4371707785006795e-03 2.4687112319653778e-04
      3.3189001368120687e-03 2.0820113760961693e-03
      7.9688791074447769e-03 -6.9696109331785000e-03
      5.3840332224712279e-03 -3.5139043194310441e-03
      -2.4616212896618702e-03 1.7897640912479273e-03
      3.4641198938744188e-03 6.6332964101397307e-04
      4.5278535377069815e-03 -6.2555233032868113e-03
      1.1541803216977965e-03 -2.5544857361403197e-03
      2.5838564724759111e-03 -1.0470280076819939e-03
      3.1378439854464024e-03 1.9992791640705398e-03
      -3.3779913348439488e-04 -1.8504950242895033e-03
      -5.7883152112804485e-03 -9.4887470765251322e-03
      2.7163897694058511e-04 -7.8748215685041038e-03
      3.3054615529857054e-03 -4.8127676605928191e-03
      3.0680253865815726e-03 -6.8134885904693465e-03
      1.1588703133385813e-04 -1.0583341592882705e-03
      -1.3001996588274760e-03 -1.3688941614643248e-03
      9.9640511625982264e-04 1.9109530182050845e-03
      4.5859294506813125e-03 4.9311426603022299e-03
      9.6977951649110871e-04 -2.0824581678943548e-04
      1.6240529445067245e-03 -7.7924835008252272e-04
      -5.0927338836259523e-03 -3.7466357630941806e-03
      7.7480914942069229e-04 -4.9650944963023046e-03
      -1.5872668557976952e-03 -5.1568076519555124e-03
      -5.5218098487945649e-03 -4.4038264858632563e-03
      2.3346996450106252e-03 3.7152607909553131e-03
      -3.5990142256652348e-04 4.7751914863523922e-03
      -4.1925699483228423e-03 -6.2476192757489704e-04
      3.5248573201073310e-03 -2.2891288846413238e-04
      2.6344227215108836e-03 -3.0724723004207045e-03
      2.4531690838751389e-03 3.2655860010164972e-03
      -1.1841549478585761e-03 1.9707232022747189e-03
      8.5386806311481693e-05 6.3330062445304076e-04
      1.4214295795929258e-03 1.8334557862318081e-03
      1.6318762167085632e-03 -1.5858379576033257e-03
      -4.2682384283070883e-03 -6.7075850451264107e-03
      9.3137537257869155e-04 -1.0029576722196023e-03
      5.3345512482230723e-05 4.1830819963071860e-03
      -6.5237314413756921e-04 -1.3894997123778828e-03
      -1.4903670833075263e-03 -3.8279898857963182e-03
      -3.2842673595023324e-03 9.6968001590074231e-04
      1.4607241456660617e-03 -9.8233438950329601e-04
      -2.5557472007269711e-04 -2.8834671011263714e-03
      1.0571161119334398e-03 -1.9931858417344623e-03
      5.9112868979800210e-03 2.5064066925828098e-03
      -5.4764047578105069e-03 -3.6460037988305890e-03
      1.7408308948020687e-03 -6.9345995028624022e-04
      -3.7716797960680045e-03 9.8043283016773712e-04
      6.5007136571180874e-03 -4.9683761176633401e-03
      1.5321151941439593e-03 5.4347526202618863e-03
      6.8168126485771265e-04 -3.3705714041336213e-04
      -5.8667560172461202e-04 1.3501488520418245e-04
      4.4513266119508314e-03 -4.8240910944351775e-03
      5.5028479278584454e-03 1.6835241416488973e-03
      -2.2285319908614417e-03 6.6570010392602217e-04
      -3.7894733768305579e-03 -7.6455225632325108e-04
      -2.4041236085809239e-04 -7.9039463465088559e-04
      2.3775485378291681e-03 -4.9709747603495077e-03
      1.5025546155377299e-03 -2.8282458253981852e-03
      4.1032554299685617e-03 -2.7882932004298778e-03
      -2.5776915955331458e-03 3.5596208602029492e-04
      -1.6062775893753945e-03 -3.4247748805133270e-03
      -1.6215041726747096e-03 -4.1448879809550974e-03
      1.9282619074623283e-03 -7.8235449904909152e-04
      1.8993134374015270e-03 1.7612343800207991e-03
      -4.4838107374110675e-03 -1.8334639238670380e-03
      1.0531512606509002e-03 -1.6930114135081276e-03
      1.1080733040899501e-03 8.9088007757744369e-05
      -2.7144676573324276e-03 1.3858472792773618e-03
      -8.0061045859511576e-04 -3.8819301658786186e-03
      -1.2844859387658959e-03 3.1679863539824153e-05
      -9.4452350906286875e-04 -3.2640552583059756e-03
      -3.7837669540189910e-03 -3.0255182919375709e-03
      -6.5865751233102569e-04 -5.8917118136600933e-03
      -4.2993996151989636e-03 -2.1614878149572997e-03
      -4.2024078506782006e-03 4.0799487527750601e-03
      5.0049690680941609e-04 4.6989005566628883e-03
      -2.1477841224727913e-03 -8.2626293621036555e-04
      -7.4838006699562824e-05 -2.5454159208463788e-03
      3.3533464331153653e-03 -4.9559297168282369e-03
      3.4993742658754210e-03 1.6375449912373996e-03
      -3.4491658920945854e-03 -1.6033755442442931e-03
      1.6285091241017694e-03 -4.3320880862128286e-04
      7.7239787614638230e-04 -1.3616862969197800e-03
      4.0136652913412373e-04 2.6627459283139116e-03
      -3.8301997555384346e-03 -1.9554810775997862e-03
      1.4324095891050351e-03 1.6556969098608374e-03
      4.1455770534150727e-06 2.5945583320777961e-03
      -3.9723746054124917e-03 -3.9820383387652565e-03
      2.4914601771956826e-03 -2.4080354082422380e-03
      -4.4724393113590973e-03 3.5391004400370935e-03
      3.2388987147807797e-03 -1.9883462512763706e-03
      -4.4613310216279676e-04 -1.6504522630224627e-03
      -3.9149538097310223e-03 1.7842319595607978e-03
      3.4593908311756046e-03 2.3546906434092888e-04
      1.1797436193692586e-03 7.9824039336452528e-04
      -8.8847354649639347e-04 2.1114090274793277e-03
      7.3780502373615130e-04 3.3141041893622160e-03
      3.8501147320476651e-03 1.4248974503402346e-03
      -3.0993360636919420e-04 -1.3713670598613518e-03
      -7.9942104559446280e-06 -1.3068103861329870e-03
      1.8149601297807801e-03 7.3019320753239553e-04
      7.5814206766798163e-04 -1.2876594987905475e-03
      1.0772415604006795e-03 2.5473522030531968e-03
      1.4628764482269936e-03 -1.3035994660896143e-03
      -2.8308633272200769e-03 -4.1675753181284715e-04
      2.5369675927186070e-03 -3.2164772934109120e-03
      1.5784214528482539e-03 -4.3533928637027527e-03
      2.7378205162334329e-03 -2.0369954986662274e-03
      3.9175056567040097e-03 -4.3308114218750292e-03
      -1.8246016358268007e-04 -7.5255434015310469e-04
      -1.6816755809393169e-03 -1.3285386484013981e-03
      -2.5663716181864539e-03 -2.1840512349599237e-03
      4.0357047374177902e-03 -2.7952337683854892e-03
      -1.5588294673347771e-03 -5.7559057091816806e-04
      7.3460919143901167e-04 -3.5546029122881686e-03
      -9.5295582057405924e-04 -8.7909019130156412e-04
      -3.0040193984622256e-03 -2.0750024371082743e-03
      -4.6960804325557985e-03 -5.2615307450495034e-03
      4.6180843920506188e-04 2.2999113788315100e-03
      7.4577546908917262e-03 3.1307654054613045e-04
      7.9662736699980200e-03 3.8434101097246853e-03
      -3.8633345397366867e-03 1.7529391321019475e-03
      -8.8248636858261444e-04 5.9596804425555375e-03
      7.7824473920636945e-03 2.4376475274002444e-03
      1.2897501231960322e-03 -1.4815015932608130e-03
      -3.8380993393874233e-03 -2.6849931800594137e-03
      2.2972108814339940e-03 4.8431709211830872e-03
      2.8625587718442798e-03 -4.9504235974616728e-03
      -8.3652549856120216e-03 3.7689392729715293e-03
      9.8436697870114939e-04 -6.5328211490656273e-03
      2.6720157511720953e-03 3.4435129852900016e-03
      -1.7742384719132065e-03 -1.5309660417296461e-03
      -3.7725173188752330e-03 -6.1256709149857191e-04
      -9.9426240866430865e-04 -4.9276910240138114e-03
      8.0212131406195882e-03 -1.2134298216626474e-05
      4.0896918228107582e-03 2.6753857059041916e-03
      -1.8234371886966909e-03 -6.7625753672637026e-05
      6.6735391561950535e-03 6.7945320715012275e-03
      -1.4973848253182209e-03 -1.6787937984778056e-03
      5.7414877190406603e-03 -1.6992230281060098e-03
      -3.0797895513796614e-03 7.1656017018067557e-03
      3.2642656671999126e-03 7.1672891637912673e-03
      3.0098143901834021e-03 4.2928631277736953e-03
      -7.0406262161783993e-03 -5.4146340301508425e-04
      3.0501672556118237e-03 6.3844490238154801e-04
      2.6673535516372649e-03 3.2963133118534744e-03
      1.0151962860887478e-02 -3.1527464865676556e-03
      -5.2424711278831011e-03 9.4550813446188983e-04
      1.1793525895386248e-03 1.7917199256182058e-03
      -5.4363197066764034e-03 1.0519650787796165e-03
      3.3572589931194874e-03 3.4551344204024241e-03
      -2.4306825341063602e-03 7.8528578618195649e-03
      -5.0396737499000845e-03 5.3577880292257855e-03
      3.2610008571208656e-03 3.5494745586145586e-03
      -3.6030239023071321e-03 2.9435583163512839e-03
      5.9621541013324267e-03 -4.2593628855615686e-03
      1.7637699835829049e-04 3.0014497317269267e-03
      -1.7953205137147537e-03 2.9916275907089893e-03
      -1.2616785584527240e-03 2.3087533825403841e-03
      1.0809398155897634e-03 -9.9730148015945140e-04
      8.0647632477114164e-03 4.6193265461421497e-03
      3.8843796020432589e-03 2.1234073266701201e-03
      -3.1035274842017590e-03 6.5369507002331379e-04
      -1.3175699746024159e-03 -3.0688533194765666e-03
      9.0777640218580127e-04 2.1511499829887570e-03
      -1.1583465630694457e-03 -2.6887520550427915e-03
      3.0083854822152501e-03 -1.0313378914721789e-03
      3.8864163127952317e-03 1.0685892487557612e-03
      -1.1710703521848863e-03 3.3332516875567961e-04
      3.1978785585967595e-03 2.9084005271341824e-03
      2.1480236060307232e-03 3.2379695884522967e-03
      1.2654009687725360e-03 -1.5028761221302798e-03
      -3.8422854135745851e-03 8.9965019390882590e-03
      2.1957695584484123e-03 -4.0614319694172365e-03
      -2.3807206476557908e-03 -4.6144943013922204e-03
      3.8693336405630122e-04 -4.4553386416523290e-03
      -2.9362196967880824e-03 3.1404484328556794e-03
      2.7457006262269056e-03 -3.9469402499507549e-03
      -2.4467557330144865e-03 -2.0096559083363254e-03
      -3.8151064910571676e-03 -3.0693320925056925e-03
      -8.2925038600561724e-04 -1.3710121761534449e-03
      -2.9645064096623899e-03 -3.8628079888245962e-03
      -1.8021318457302489e-03 4.4042850579928301e-03
      2.7272148761366883e-03 -2.9834419211758932e-03
      7.7821511747858283e-03 -2.0168896925410449e-03
      3.2203638134421912e-03 -4.2400047139992333e-03
      3.5883352761739728e-03 -7.0278164631389197e-03
      -5.6338051606831122e-03 5.9544577328385214e-03
      -1.5121680168646112e-03 6.0186046546218037e-04
      -4.7350197923660363e-05 5.5832452549565807e-04
      -2.3514236207428244e-03 1.6189194749248088e-03
      2.6897479175830115e-03 2.8804363330242333e-03
      -2.1899087922115433e-03 2.2654867475621889e-04
      -3.0403352638365606e-04 8.0535735278271757e-04
      2.0017166874747379e-03 5.6302442596795727e-04
      5.0280828869582184e-03 3.0887136672653097e-03
      5.4276138978132651e-03 2.0178722377230040e-03
      -2.3301877476756098e-03 -2.4056683488246087e-03
      1.5942853270856543e-03 -3.7438094655963864e-03
      -5.4627317228732959e-04 1.9632129586106498e-03
      1.6587959314254084e-03 8.3459270498863853e-04
      9.9805421392086058e-05 8.2974866405135118e-04
      -4.9364783878312240e-03 1.3707827389852795e-03
      -3.8457360775472158e-03 -3.4290733647347922e-03
      3.3619939701052902e-04 3.7967768791966105e-03
      -1.7684813781734994e-03 -2.4017846309839737e-04
      -1.1050396849656737e-03 4.1843250198041399e-04
      3.8685328124169727e-03 2.4797788819185601e-03
      -2.5414026828360857e-03 3.9895632086853058e-03
      -1.0699213738058612e-04 7.6673737991933902e-04
      -2.1964665256458595e-03 1.9517019769773553e-03
      1.0744416175922373e-03 5.2806879013506992e-04
      -4.2292913608467234e-04 -5.4531697941675502e-03
      2.4890069070877666e-03 -7.0167174580217811e-04
      3.4039633078965523e-03 -1.9056932862117971e-03
      -3.0462091377642538e-03 1.4687360109667826e-03
      -1.5344563828230461e-03 -5.2057972587373083e-03
      -5.1860236457945269e-03 -1.3935656992745743e-03
      -3.1679719901822902e-03 4.0773826624901574e-03
      4.4889859828157255e-03 -1.6970855989784740e-04
      7.6157642656650643e-03 -2.6001400052341720e-03
      1.9430505372799195e-03 4.1818090911320636e-03
      -2.5590768995258180e-03 6.7039883570645517e-03
      1.4872785046393241e-02 3.2139449648468119e-04
      -1.0851667611840882e-02 -2.8963791004981538e-03
      1.2109788287717833e-03 -2.9252454896729467e-03
      1.2557460451211316e-02 -1.5004668243346745e-03
      8.3888653347681443e-03 -1.5146311409454730e-04
      -1.0170054828181112e-02 4.8504409215937407e-03
      -4.5318450158681294e-03 -2.8698234334552960e-04
      4.3356206151268844e-03 -1.5649769495853232e-03
      2.1182865115845507e-04 -2.8041559955474852e-03
      -1.8529254600131637e-03 4.9510756355086918e-03
      3.3505065386767426e-03 -4.8806601038293845e-03
      1.2171095382906403e-02 5.3076973176432252e-03
      -6.7415885302937531e-03 -5.7489168135241628e-05
      2.6686373106902944e-03 -6.6247761582770275e-03
      1.6059944903234671e-03 3.8844534052627322e-03
      -2.9121925451029646e-03 4.9331067079238795e-04
